{"learner":{"attributes":{"scikit_learn":"{\"_estimator_type\": \"classifier\"}"},"feature_names":["HeightInMeters","WeightInKilograms","BMI","HadAngina","HadStroke","HadAsthma","HadSkinCancer","HadCOPD","HadDepressiveDisorder","HadKidneyDisease","HadArthritis","DeafOrHardOfHearing","BlindOrVisionDifficulty","DifficultyConcentrating","DifficultyWalking","DifficultyDressingBathing","DifficultyErrands","ChestScan","AlcoholDrinkers","HIVTesting","FluVaxLast12","PneumoVaxEver","HighRiskLastYear","CovidPos","State_Alaska","State_Arizona","State_Arkansas","State_California","State_Colorado","State_Connecticut","State_Delaware","State_District of Columbia","State_Florida","State_Georgia","State_Guam","State_Hawaii","State_Idaho","State_Illinois","State_Indiana","State_Iowa","State_Kansas","State_Kentucky","State_Louisiana","State_Maine","State_Maryland","State_Massachusetts","State_Michigan","State_Minnesota","State_Mississippi","State_Missouri","State_Montana","State_Nebraska","State_Nevada","State_New Hampshire","State_New Jersey","State_New Mexico","State_New York","State_North Carolina","State_North Dakota","State_Ohio","State_Oklahoma","State_Oregon","State_Pennsylvania","State_Puerto Rico","State_Rhode Island","State_South Carolina","State_South Dakota","State_Tennessee","State_Texas","State_Utah","State_Vermont","State_Virgin Islands","State_Virginia","State_Washington","State_West Virginia","State_Wisconsin","State_Wyoming","Sex_Male","GeneralHealth_Fair","GeneralHealth_Good","GeneralHealth_Poor","GeneralHealth_Very good","AgeCategory_Age 25 to 29","AgeCategory_Age 30 to 34","AgeCategory_Age 35 to 39","AgeCategory_Age 40 to 44","AgeCategory_Age 45 to 49","AgeCategory_Age 50 to 54","AgeCategory_Age 55 to 59","AgeCategory_Age 60 to 64","AgeCategory_Age 65 to 69","AgeCategory_Age 70 to 74","AgeCategory_Age 75 to 79","AgeCategory_Age 80 or older","HadDiabetes_No, pre-diabetes or borderline diabetes","HadDiabetes_Yes","HadDiabetes_Yes, but only during pregnancy (female)","SmokerStatus_Current smoker - now smokes some days","SmokerStatus_Former smoker","SmokerStatus_Never smoked","ECigaretteUsage_Not at all (right now)","ECigaretteUsage_Use them every day","ECigaretteUsage_Use them some days","RaceEthnicityCategory_Hispanic","RaceEthnicityCategory_Multiracial, Non-Hispanic","RaceEthnicityCategory_Other race only, Non-Hispanic","RaceEthnicityCategory_White only, Non-Hispanic","TetanusLast10Tdap_Yes, received Tdap","TetanusLast10Tdap_Yes, received tetanus shot but not sure what type","TetanusLast10Tdap_Yes, received tetanus shot, but not Tdap"],"feature_types":["float","float","float","int","int","int","int","int","int","int","int","int","int","int","int","int","int","int","int","int","int","int","int","int","i","i","i","i","i","i","i","i","i","i","i","i","i","i","i","i","i","i","i","i","i","i","i","i","i","i","i","i","i","i","i","i","i","i","i","i","i","i","i","i","i","i","i","i","i","i","i","i","i","i","i","i","i","i","i","i","i","i","i","i","i","i","i","i","i","i","i","i","i","i","i","i","i","i","i","i","i","i","i","i","i","i","i","i","i","i"],"gradient_booster":{"model":{"gbtree_model_param":{"num_parallel_tree":"1","num_trees":"50"},"iteration_indptr":[0,1,2,3,4,5,6,7,8,9,10,11,12,13,14,15,16,17,18,19,20,21,22,23,24,25,26,27,28,29,30,31,32,33,34,35,36,37,38,39,40,41,42,43,44,45,46,47,48,49,50],"tree_info":[0,0,0,0,0,0,0,0,0,0,0,0,0,0,0,0,0,0,0,0,0,0,0,0,0,0,0,0,0,0,0,0,0,0,0,0,0,0,0,0,0,0,0,0,0,0,0,0,0,0],"trees":[{"base_weights":[-2.0535382E-2,-5.9766215E-1,2.3338838E0,-1.0663346E0,-6.1751343E-2,2.1800387E0,2.4131584E0,-1.1077958E0,5.5450076E-1,-2.0390822E-1,1.2667562E0,2.229879E0,1.8212248E0,2.4769583E0,2.3049743E0,-5.930823E-2,-2.1926336E-2,1.7031869E-2,7.824991E-2,-1.999857E-2,2.087707E-2,5.2218057E-2,7.4480854E-2,1.061308E-1,1.1831939E-1,1.2228116E-1,8.755827E-2,1.2690371E-1,1.19987965E-1,1.1238327E-1,1.2800384E-1],"categories":[],"categories_nodes":[],"categories_segments":[],"categories_sizes":[],"default_left":[0,0,0,0,0,0,0,0,0,0,0,0,0,0,0,0,0,0,0,0,0,0,0,0,0,0,0,0,0,0,0],"id":0,"left_children":[1,3,5,7,9,11,13,15,17,19,21,23,25,27,29,-1,-1,-1,-1,-1,-1,-1,-1,-1,-1,-1,-1,-1,-1,-1,-1],"loss_changes":[5.9501996E4,8.83328E3,9.987891E1,1.2614258E3,3.0991528E3,4.855078E1,3.3496094E1,9.589922E2,1.0073949E2,1.8063119E3,7.706299E1,3.2734375E1,1.1651978E1,1.0701172E1,2.5259766E1,0E0,0E0,0E0,0E0,0E0,0E0,0E0,0E0,0E0,0E0,0E0,0E0,0E0,0E0,0E0,0E0],"parents":[2147483647,0,0,1,1,2,2,3,3,4,4,5,5,6,6,7,7,8,8,9,9,10,10,11,11,12,12,13,13,14,14],"right_children":[2,4,6,8,10,12,14,16,18,20,22,24,26,28,30,-1,-1,-1,-1,-1,-1,-1,-1,-1,-1,-1,-1,-1,-1,-1,-1],"split_conditions":[1E0,1E0,1E0,1E0,1E0,1E0,1E0,1E0,1E0,1E0,1E0,1E0,1.51E0,1E0,1E0,-5.930823E-2,-2.1926336E-2,1.7031869E-2,7.824991E-2,-1.999857E-2,2.087707E-2,5.2218057E-2,7.4480854E-2,1.061308E-1,1.1831939E-1,1.2228116E-1,8.755827E-2,1.2690371E-1,1.19987965E-1,1.1238327E-1,1.2800384E-1],"split_indices":[3,17,77,4,4,81,99,95,12,14,14,95,0,18,4,0,0,0,0,0,0,0,0,0,0,0,0,0,0,0,0],"split_type":[0,0,0,0,0,0,0,0,0,0,0,0,0,0,0,0,0,0,0,0,0,0,0,0,0,0,0,0,0,0,0],"sum_hessian":[4.3788137E4,3.5168266E4,8.619871E3,1.8760537E4,1.6407729E4,2.940968E3,5.6789033E3,1.8292918E4,4.6761945E2,1.4822494E4,1.5852335E3,2.577704E3,3.6326382E2,3.558461E3,2.1204426E3,1.637473E4,1.9181873E3,3.8704227E2,8.057719E1,1.1267902E4,3.5545913E3,7.962918E2,7.889417E2,1.4527471E3,1.1249572E3,3.322661E1,3.300372E2,1.9683279E3,1.590133E3,1.7394779E3,3.8096472E2],"tree_param":{"num_deleted":"0","num_feature":"110","num_nodes":"31","size_leaf_vector":"1"}},{"base_weights":[-2.0136992E-2,-5.734067E-1,2.14638E0,-1.0304669E0,-5.8831852E-2,2.0088725E0,2.2170327E0,-1.0712081E0,5.226285E-1,-1.9437963E-1,1.1815251E0,2.053387E0,1.6866987E0,2.2738063E0,2.1205614E0,-5.7421695E-2,-2.0973148E-2,1.6099602E-2,7.274794E-2,-1.911717E-2,1.9709168E-2,4.7590934E-2,6.934113E-2,9.786319E-2,1.0876781E-1,7.982536E-2,1.0392369E-1,1.16406895E-1,1.1025324E-1,1.0346271E-1,1.1740591E-1],"categories":[],"categories_nodes":[],"categories_segments":[],"categories_sizes":[],"default_left":[0,0,0,0,0,0,0,0,0,0,0,0,0,0,0,0,0,0,0,0,0,0,0,0,0,0,0,0,0,0,0],"id":1,"left_children":[1,3,5,7,9,11,13,15,17,19,21,23,25,27,29,-1,-1,-1,-1,-1,-1,-1,-1,-1,-1,-1,-1,-1,-1,-1,-1],"loss_changes":[5.2430668E4,8.194681E3,8.199219E1,1.1681504E3,2.7560488E3,4E1,2.7316406E1,9.04541E2,8.7889496E1,1.6349419E3,7.483716E1,2.6907227E1,9.879883E0,8.611328E0,2.069629E1,0E0,0E0,0E0,0E0,0E0,0E0,0E0,0E0,0E0,0E0,0E0,0E0,0E0,0E0,0E0,0E0],"parents":[2147483647,0,0,1,1,2,2,3,3,4,4,5,5,6,6,7,7,8,8,9,9,10,10,11,11,12,12,13,13,14,14],"right_children":[2,4,6,8,10,12,14,16,18,20,22,24,26,28,30,-1,-1,-1,-1,-1,-1,-1,-1,-1,-1,-1,-1,-1,-1,-1,-1],"split_conditions":[1E0,1E0,1E0,1E0,1E0,1E0,1E0,1E0,1E0,1E0,1E0,1E0,1E0,1E0,1E0,-5.7421695E-2,-2.0973148E-2,1.6099602E-2,7.274794E-2,-1.911717E-2,1.9709168E-2,4.7590934E-2,6.934113E-2,9.786319E-2,1.0876781E-1,7.982536E-2,1.0392369E-1,1.16406895E-1,1.1025324E-1,1.0346271E-1,1.1740591E-1],"split_indices":[3,17,77,4,4,81,99,95,12,14,77,95,100,18,4,0,0,0,0,0,0,0,0,0,0,0,0,0,0,0,0],"split_type":[0,0,0,0,0,0,0,0,0,0,0,0,0,0,0,0,0,0,0,0,0,0,0,0,0,0,0,0,0,0,0],"sum_hessian":[4.3738742E4,3.484182E4,8.896921E3,1.8451588E4,1.6390232E4,3.0297363E3,5.8671846E3,1.7980234E4,4.7135245E2,1.4776304E4,1.6139299E3,2.6572185E3,3.725179E2,3.6793223E3,2.1878625E3,1.6074762E4,1.9054733E3,3.8898804E2,8.236443E1,1.1199861E4,3.5764424E3,7.643446E2,8.495854E2,1.4955968E3,1.1616217E3,3.069331E2,6.55848E1,2.0366974E3,1.6426248E3,1.7935613E3,3.943012E2],"tree_param":{"num_deleted":"0","num_feature":"110","num_nodes":"31","size_leaf_vector":"1"}},{"base_weights":[-1.9676646E-2,-5.504068E-1,1.9906638E0,-9.9660593E-1,-5.6055218E-2,1.8650503E0,2.0551121E0,-1.0366721E0,4.9311042E-1,-1.8529935E-1,1.1052878E0,1.804005E0,2.078813E0,2.0232387E0,1.10109605E-1,-5.5647172E-2,-2.0059636E-2,1.6394787E-2,7.782271E-2,-1.745802E-2,2.261149E-2,4.5123864E-2,6.538181E-2,9.240198E-2,7.61265E-2,8.8937625E-2,1.0602065E-1,1.0416869E-1,9.600299E-2],"categories":[],"categories_nodes":[],"categories_segments":[],"categories_sizes":[],"default_left":[0,0,0,0,0,0,0,0,0,0,0,0,0,0,0,0,0,0,0,0,0,0,0,0,0,0,0,0,0],"id":2,"left_children":[1,3,5,7,9,11,13,15,17,19,21,23,25,27,-1,-1,-1,-1,-1,-1,-1,-1,-1,-1,-1,-1,-1,-1,-1],"loss_changes":[4.6531355E4,7.6105547E3,6.991016E1,1.0829121E3,2.4571804E3,3.6695312E1,2.3722656E1,8.5550977E2,8.3049324E1,1.539034E3,6.609912E1,2.7163086E1,4.741211E0,2.672461E1,0E0,0E0,0E0,0E0,0E0,0E0,0E0,0E0,0E0,0E0,0E0,0E0,0E0,0E0,0E0],"parents":[2147483647,0,0,1,1,2,2,3,3,4,4,5,5,6,6,7,7,8,8,9,9,10,10,11,11,12,12,13,13],"right_children":[2,4,6,8,10,12,14,16,18,20,22,24,26,28,-1,-1,-1,-1,-1,-1,-1,-1,-1,-1,-1,-1,-1,-1,-1],"split_conditions":[1E0,1E0,1E0,1E0,1E0,1E0,1E0,1E0,1E0,1E0,1E0,1E0,2.281E1,1E0,1.10109605E-1,-5.5647172E-2,-2.0059636E-2,1.6394787E-2,7.782271E-2,-1.745802E-2,2.261149E-2,4.5123864E-2,6.538181E-2,9.240198E-2,7.61265E-2,8.8937625E-2,1.0602065E-1,1.0416869E-1,9.600299E-2],"split_indices":[3,17,77,4,4,4,4,95,9,95,14,81,2,99,0,0,0,0,0,0,0,0,0,0,0,0,0,0,0],"split_type":[0,0,0,0,0,0,0,0,0,0,0,0,0,0,0,0,0,0,0,0,0,0,0,0,0,0,0,0,0],"sum_hessian":[4.3609605E4,3.450184E4,9.107765E3,1.8133564E4,1.6368275E4,3.0985166E3,6.009248E3,1.765893E4,4.7463562E2,1.4729853E4,1.6384229E3,2.4175605E3,6.80956E2,4.951065E3,1.0581827E3,1.5765924E4,1.8930052E3,4.1193973E2,6.2695873E1,1.1718385E4,3.0114678E3,8.210037E2,8.174192E2,2.0857024E3,3.318583E2,8.82398E1,5.927162E2,3.1158665E3,1.8351987E3],"tree_param":{"num_deleted":"0","num_feature":"110","num_nodes":"29","size_leaf_vector":"1"}},{"base_weights":[-1.917855E-2,-5.2849305E-1,1.8589038E0,-9.6450144E-1,-5.3404164E-2,1.7421069E0,1.9188095E0,-1.0434812E0,-2.232085E-1,-1.7660835E-1,1.0366416E0,1.685777E0,1.9389946E0,1.9782029E0,1.8431469E0,-5.354739E-2,1.666229E-2,-1.8665696E-2,2.4105446E-2,-1.7796995E-2,1.886383E-2,4.1282523E-2,6.1223622E-2,8.633157E-2,7.121885E-2,8.31841E-2,9.885322E-2,9.907482E-2,2.4258064E-2,9.5250785E-2,8.67188E-2],"categories":[],"categories_nodes":[],"categories_segments":[],"categories_sizes":[],"default_left":[0,0,0,0,0,0,0,0,0,0,0,0,0,0,0,0,0,0,0,0,0,0,0,0,0,0,0,0,0,0,0],"id":3,"left_children":[1,3,5,7,9,11,13,15,17,19,21,23,25,27,29,-1,-1,-1,-1,-1,-1,-1,-1,-1,-1,-1,-1,-1,-1,-1,-1],"loss_changes":[4.1531523E4,7.075115E3,6.1466797E1,1.0425176E3,2.1954895E3,3.167871E1,2.3822266E1,6.089824E2,1.818721E2,1.4590188E3,6.478052E1,2.3788574E1,3.988037E0,1.5811523E1,1.4884766E1,0E0,0E0,0E0,0E0,0E0,0E0,0E0,0E0,0E0,0E0,0E0,0E0,0E0,0E0,0E0,0E0],"parents":[2147483647,0,0,1,1,2,2,3,3,4,4,5,5,6,6,7,7,8,8,9,9,10,10,11,11,12,12,13,13,14,14],"right_children":[2,4,6,8,10,12,14,16,18,20,22,24,26,28,30,-1,-1,-1,-1,-1,-1,-1,-1,-1,-1,-1,-1,-1,-1,-1,-1],"split_conditions":[1E0,1E0,1E0,1E0,1E0,1E0,1E0,1E0,1E0,1E0,1E0,1E0,2.281E1,1E0,1E0,-5.354739E-2,1.666229E-2,-1.8665696E-2,2.4105446E-2,-1.7796995E-2,1.886383E-2,4.1282523E-2,6.1223622E-2,8.633157E-2,7.121885E-2,8.31841E-2,9.885322E-2,9.907482E-2,2.4258064E-2,9.5250785E-2,8.67188E-2],"split_indices":[3,17,77,14,4,4,18,4,93,14,77,81,2,84,99,0,0,0,0,0,0,0,0,0,0,0,0,0,0,0,0],"split_type":[0,0,0,0,0,0,0,0,0,0,0,0,0,0,0,0,0,0,0,0,0,0,0,0,0,0,0,0,0,0,0],"sum_hessian":[4.3416703E4,3.415498E4,9.261723E3,1.7809473E4,1.6345508E4,3.1501084E3,6.1116143E3,1.6094324E4,1.7151497E3,1.4686393E4,1.6591154E3,2.4567808E3,6.9332776E2,3.409832E3,2.7017822E3,1.5779731E4,3.145926E2,1.4145717E3,3.0057794E2,1.1094636E4,3.5917568E3,7.8392487E2,8.751905E2,2.1198606E3,3.3691998E2,8.9655754E1,6.03672E2,3.4020005E3,7.8314495E0,1.7116722E3,9.901101E2],"tree_param":{"num_deleted":"0","num_feature":"110","num_nodes":"31","size_leaf_vector":"1"}},{"base_weights":[-1.8655438E-2,-5.0759363E-1,1.7456911E0,-9.337948E-1,-5.0888505E-2,1.6355442E0,1.8022165E0,-1.0191597E0,-2.6916468E-1,-1.683457E-1,9.7435576E-1,1.5524908E0,1.7560227E0,1.7507144E0,1.88133E0,-5.248278E-2,1.6660543E-2,-1.8813591E-2,3.4328118E-2,-1.6228547E-2,2.1544429E-2,3.931792E-2,5.8077395E-2,7.7933155E-2,-1.4561968E-2,9.04179E-2,7.148007E-2,9.036761E-2,8.279704E-2,8.655314E-2,9.5263325E-2],"categories":[],"categories_nodes":[],"categories_segments":[],"categories_sizes":[],"default_left":[0,0,0,0,0,0,0,0,0,0,0,0,0,0,0,0,0,0,0,0,0,0,0,0,0,0,0,0,0,0,0],"id":4,"left_children":[1,3,5,7,9,11,13,15,17,19,21,23,25,27,29,-1,-1,-1,-1,-1,-1,-1,-1,-1,-1,-1,-1,-1,-1,-1,-1],"loss_changes":[3.724185E4,6.5797324E3,5.5376953E1,9.91791E2,1.9653153E3,2.9170898E1,2.1890625E1,6.3938965E2,2.0412712E2,1.3708848E3,5.8122192E1,2.202539E1,1.9506836E1,1.7179688E1,5.4189453E0,0E0,0E0,0E0,0E0,0E0,0E0,0E0,0E0,0E0,0E0,0E0,0E0,0E0,0E0,0E0,0E0],"parents":[2147483647,0,0,1,1,2,2,3,3,4,4,5,5,6,6,7,7,8,8,9,9,10,10,11,11,12,12,13,13,14,14],"right_children":[2,4,6,8,10,12,14,16,18,20,22,24,26,28,30,-1,-1,-1,-1,-1,-1,-1,-1,-1,-1,-1,-1,-1,-1,-1,-1],"split_conditions":[1E0,1E0,1E0,1E0,1E0,1E0,1E0,1E0,1E0,1E0,1E0,1E0,1.0433E2,1E0,1E0,-5.248278E-2,1.6660543E-2,-1.8813591E-2,3.4328118E-2,-1.6228547E-2,2.1544429E-2,3.931792E-2,5.8077395E-2,7.7933155E-2,-1.4561968E-2,9.04179E-2,7.148007E-2,9.036761E-2,8.279704E-2,8.655314E-2,9.5263325E-2],"split_indices":[3,17,77,95,4,95,95,4,93,95,14,82,1,99,17,0,0,0,0,0,0,0,0,0,0,0,0,0,0,0,0],"split_type":[0,0,0,0,0,0,0,0,0,0,0,0,0,0,0,0,0,0,0,0,0,0,0,0,0,0,0,0,0,0,0],"sum_hessian":[4.31691E4,3.3802438E4,9.366667E3,1.7484607E4,1.6317829E4,3.1867751E3,6.1798916E3,1.5494024E4,1.9905825E3,1.4641285E4,1.6765444E3,1.8945978E3,1.2921775E3,3.7571565E3,2.422735E3,1.515256E4,3.414647E2,1.7905266E3,2.0005583E2,1.1613904E4,3.0273804E3,8.390683E2,8.3747614E2,1.8884305E3,6.1671634E0,1.1097163E3,1.8246115E2,2.3404263E3,1.4167303E3,3.4297025E2,2.079765E3],"tree_param":{"num_deleted":"0","num_feature":"110","num_nodes":"31","size_leaf_vector":"1"}},{"base_weights":[-1.8121693E-2,-4.8763004E-1,1.6470921E0,-9.0457803E-1,-4.8485253E-2,1.5419221E0,1.7011338E0,-9.8344636E-1,-1.8003584E-1,-2.5477678E-1,5.0006163E-1,1.4893748E0,1.7258655E0,1.7565639E0,1.6305995E0,-5.2203495E-2,-2.0490317E-2,-1.5217449E-2,3.0814225E-2,-1.7699556E-2,2.8135305E-2,1.8041877E-2,5.463029E-2,7.470208E-2,-1.6861519E-2,7.3563024E-2,8.8062756E-2,8.798011E-2,1.911775E-2,8.434533E-2,7.65881E-2],"categories":[],"categories_nodes":[],"categories_segments":[],"categories_sizes":[],"default_left":[0,0,0,0,0,0,0,0,0,0,0,0,0,0,0,0,0,0,0,0,0,0,0,0,0,0,0,0,0,0,0],"id":5,"left_children":[1,3,5,7,9,11,13,15,17,19,21,23,25,27,29,-1,-1,-1,-1,-1,-1,-1,-1,-1,-1,-1,-1,-1,-1,-1,-1],"loss_changes":[3.352342E4,6.1242065E3,5.0976562E1,9.80249E2,1.8436467E3,2.8473145E1,2.1453125E1,5.376553E2,1.6704068E2,9.6046136E2,3.669286E2,2.1859863E1,3.7819824E0,1.3814453E1,1.2725586E1,0E0,0E0,0E0,0E0,0E0,0E0,0E0,0E0,0E0,0E0,0E0,0E0,0E0,0E0,0E0,0E0],"parents":[2147483647,0,0,1,1,2,2,3,3,4,4,5,5,6,6,7,7,8,8,9,9,10,10,11,11,12,12,13,13,14,14],"right_children":[2,4,6,8,10,12,14,16,18,20,22,24,26,28,30,-1,-1,-1,-1,-1,-1,-1,-1,-1,-1,-1,-1,-1,-1,-1,-1],"split_conditions":[1E0,1E0,1E0,1E0,1E0,1E0,1E0,1E0,1E0,1E0,1E0,1E0,2.281E1,1E0,1E0,-5.2203495E-2,-2.0490317E-2,-1.5217449E-2,3.0814225E-2,-1.7699556E-2,2.8135305E-2,1.8041877E-2,5.463029E-2,7.470208E-2,-1.6861519E-2,7.3563024E-2,8.8062756E-2,8.798011E-2,1.911775E-2,8.434533E-2,7.65881E-2],"split_indices":[3,17,77,14,14,4,18,95,80,93,4,83,2,84,99,0,0,0,0,0,0,0,0,0,0,0,0,0,0,0,0],"split_type":[0,0,0,0,0,0,0,0,0,0,0,0,0,0,0,0,0,0,0,0,0,0,0,0,0,0,0,0,0,0,0],"sum_hessian":[4.2876023E4,3.3446473E4,9.429552E3,1.7156293E4,1.629018E4,3.210726E3,6.2188257E3,1.547179E4,1.684503E3,1.1838588E4,4.4515913E3,2.5043901E3,7.06336E2,3.4688755E3,2.74995E3,1.3992241E4,1.4795485E3,1.457579E3,2.2692404E2,1.0557801E4,1.2807876E3,3.6059473E3,8.456439E2,2.4981897E3,6.200448E0,9.13935E1,6.149425E2,3.4609434E3,7.932124E0,1.741667E3,1.008283E3],"tree_param":{"num_deleted":"0","num_feature":"110","num_nodes":"31","size_leaf_vector":"1"}},{"base_weights":[-1.7582977E-2,-4.6844202E-1,1.5602432E0,-8.7644327E-1,-4.619299E-2,1.4588555E0,1.6124411E0,-9.3500286E-1,7.9739355E-2,-1.5539439E-1,8.9121604E-1,1.4948063E0,1.1997508E0,1.5832095E0,1.7479321E0,-4.839795E-2,1.9575888E-2,1.5763575E-4,7.1097806E-2,-1.5207362E-2,2.0380152E-2,3.4597088E-2,5.3428818E-2,7.067767E-2,7.992005E-2,8.724589E-2,5.7003226E-2,8.17942E-2,7.4664615E-2,8.80351E-2,7.531212E-2],"categories":[],"categories_nodes":[],"categories_segments":[],"categories_sizes":[],"default_left":[0,0,0,0,0,0,0,0,0,0,0,0,0,0,0,0,0,0,0,0,0,0,0,0,0,0,0,0,0,0,0],"id":6,"left_children":[1,3,5,7,9,11,13,15,17,19,21,23,25,27,29,-1,-1,-1,-1,-1,-1,-1,-1,-1,-1,-1,-1,-1,-1,-1,-1],"loss_changes":[3.0271656E4,5.701741E3,4.7697266E1,9.4256445E2,1.6651544E3,2.8243652E1,2.1921875E1,6.937666E2,9.994217E1,1.2202432E3,5.924646E1,2.154248E1,1.0960144E1,2.1892578E1,7.324219E-1,0E0,0E0,0E0,0E0,0E0,0E0,0E0,0E0,0E0,0E0,0E0,0E0,0E0,0E0,0E0,0E0],"parents":[2147483647,0,0,1,1,2,2,3,3,4,4,5,5,6,6,7,7,8,8,9,9,10,10,11,11,12,12,13,13,14,14],"right_children":[2,4,6,8,10,12,14,16,18,20,22,24,26,28,30,-1,-1,-1,-1,-1,-1,-1,-1,-1,-1,-1,-1,-1,-1,-1,-1],"split_conditions":[1E0,1E0,1E0,1E0,1E0,1E0,1E0,1E0,1E0,1E0,1E0,1E0,1.51E0,1E0,3.932E1,-4.839795E-2,1.9575888E-2,1.5763575E-4,7.1097806E-2,-1.5207362E-2,2.0380152E-2,3.4597088E-2,5.3428818E-2,7.067767E-2,7.992005E-2,8.724589E-2,5.7003226E-2,8.17942E-2,7.4664615E-2,8.80351E-2,7.531212E-2],"split_indices":[3,17,77,93,4,81,4,4,80,95,77,95,0,99,2,0,0,0,0,0,0,0,0,0,0,0,0,0,0,0,0],"split_type":[0,0,0,0,0,0,0,0,0,0,0,0,0,0,0,0,0,0,0,0,0,0,0,0,0,0,0,0,0,0,0],"sum_hessian":[4.255157E4,3.309537E4,9.456198E3,1.683111E4,1.6264262E4,3.2236387E3,6.23256E3,1.5859827E4,9.7128265E2,1.4568025E4,1.6962357E3,2.8266697E3,3.9696902E2,5.1369683E3,1.0955918E3,1.5475621E4,3.8420624E2,9.198013E2,5.1481342E1,1.1523732E4,3.0442932E3,8.0107935E2,8.9515643E2,1.592367E3,1.2343026E3,3.638632E1,3.605827E2,3.2284878E3,1.9084805E3,1.0346405E3,6.0951298E1],"tree_param":{"num_deleted":"0","num_feature":"110","num_nodes":"31","size_leaf_vector":"1"}},{"base_weights":[-1.703558E-2,-4.5008647E-1,1.4830197E0,-8.493901E-1,-4.4013392E-2,1.5417126E0,1.3960626E0,-9.283972E-1,-1.4051332E-1,-2.3851712E-1,4.669832E-1,1.5125556E0,1.6527746E0,1.3484594E0,1.5956162E0,-4.9500894E-2,-1.7834691E-2,-1.2950093E-2,3.005344E-2,-1.6670067E-2,2.6562018E-2,1.725144E-2,4.9068727E-2,7.5744726E-2,-1.6465478E-2,8.303901E-2,5.6281596E-2,6.76521E-2,-2.947914E-2,8.010638E-2,3.6194377E-2],"categories":[],"categories_nodes":[],"categories_segments":[],"categories_sizes":[],"default_left":[0,0,0,0,0,0,0,0,0,0,0,0,0,0,0,0,0,0,0,0,0,0,0,0,0,0,0,0,0,0,0],"id":7,"left_children":[1,3,5,7,9,11,13,15,17,19,21,23,25,27,29,-1,-1,-1,-1,-1,-1,-1,-1,-1,-1,-1,-1,-1,-1,-1,-1],"loss_changes":[2.7410336E4,5.309135E3,4.6089844E1,9.2448145E2,1.6137179E3,1.5744141E1,3.413379E1,5.2291406E2,1.4572548E2,8.5908136E2,2.804674E2,1.977246E1,3.0290527E0,2.8245605E1,2.9852295E0,0E0,0E0,0E0,0E0,0E0,0E0,0E0,0E0,0E0,0E0,0E0,0E0,0E0,0E0,0E0,0E0],"parents":[2147483647,0,0,1,1,2,2,3,3,4,4,5,5,6,6,7,7,8,8,9,9,10,10,11,11,12,12,13,13,14,14],"right_children":[2,4,6,8,10,12,14,16,18,20,22,24,26,28,30,-1,-1,-1,-1,-1,-1,-1,-1,-1,-1,-1,-1,-1,-1,-1,-1],"split_conditions":[1E0,1E0,1E0,1E0,1E0,1E0,1E0,1E0,1E0,1E0,1E0,5.476E1,1E0,1E0,1E0,-4.9500894E-2,-1.7834691E-2,-1.2950093E-2,3.005344E-2,-1.6670067E-2,2.6562018E-2,1.725144E-2,4.9068727E-2,7.5744726E-2,-1.6465478E-2,8.303901E-2,5.6281596E-2,6.76521E-2,-2.947914E-2,8.010638E-2,3.6194377E-2],"split_indices":[3,17,99,14,14,80,4,95,80,93,4,2,102,82,85,0,0,0,0,0,0,0,0,0,0,0,0,0,0,0,0],"split_type":[0,0,0,0,0,0,0,0,0,0,0,0,0,0,0,0,0,0,0,0,0,0,0,0,0,0,0,0,0,0,0],"sum_hessian":[4.2193668E4,3.2742062E4,9.4516045E3,1.6508084E4,1.6233979E4,5.6328784E3,3.8187268E3,1.4852416E4,1.6556688E3,1.1758719E4,4.4752593E3,4.4731616E3,1.1597166E3,3.0894897E3,7.29237E2,1.3406655E4,1.4457606E3,1.4281349E3,2.2753386E2,1.0468843E4,1.2898759E3,3.618935E3,8.5632404E2,4.467666E3,5.4957433E0,1.1402493E3,1.9467197E1,3.0825027E3,6.9870095E0,7.229987E2,6.238287E0],"tree_param":{"num_deleted":"0","num_feature":"110","num_nodes":"31","size_leaf_vector":"1"}},{"base_weights":[-1.650247E-2,-4.3244457E-1,1.4135572E0,-8.233559E-1,-4.1934334E-2,1.3129275E0,1.4656298E0,-8.82096E-1,1.0951409E-1,-2.275856E-1,4.4158208E-1,1.3477182E0,1.0637809E0,1.5196751E0,1.3971043E0,-4.7874767E-2,-1.46573875E-2,-6.3859047E-3,2.6062226E-2,-1.7597098E-2,1.7656926E-2,1.6312752E-2,4.640149E-2,6.345E-2,7.2424054E-2,4.9273398E-2,7.2346695E-2,7.612948E-2,1.168508E-2,7.241837E-2,6.538225E-2],"categories":[],"categories_nodes":[],"categories_segments":[],"categories_sizes":[],"default_left":[0,0,0,0,0,0,0,0,0,0,0,0,0,0,0,0,0,0,0,0,0,0,0,0,0,0,0,0,0,0,0],"id":8,"left_children":[1,3,5,7,9,11,13,15,17,19,21,23,25,27,29,-1,-1,-1,-1,-1,-1,-1,-1,-1,-1,-1,-1,-1,-1,-1,-1],"loss_changes":[2.4873598E4,4.9451655E3,4.744922E1,8.872002E2,1.4549011E3,2.65E1,2.084082E1,6.760322E2,9.3823166E1,8.458565E2,2.519624E2,2.0561523E1,1.0564911E1,1.2594238E1,1.0700684E1,0E0,0E0,0E0,0E0,0E0,0E0,0E0,0E0,0E0,0E0,0E0,0E0,0E0,0E0,0E0,0E0],"parents":[2147483647,0,0,1,1,2,2,3,3,4,4,5,5,6,6,7,7,8,8,9,9,10,10,11,11,12,12,13,13,14,14],"right_children":[2,4,6,8,10,12,14,16,18,20,22,24,26,28,30,-1,-1,-1,-1,-1,-1,-1,-1,-1,-1,-1,-1,-1,-1,-1,-1],"split_conditions":[1E0,1E0,1E0,1E0,1E0,1E0,1E0,1E0,1E0,1E0,1E0,1E0,1E0,1E0,1E0,-4.7874767E-2,-1.46573875E-2,-6.3859047E-3,2.6062226E-2,-1.7597098E-2,1.7656926E-2,1.6312752E-2,4.640149E-2,6.345E-2,7.2424054E-2,4.9273398E-2,7.2346695E-2,7.612948E-2,1.168508E-2,7.241837E-2,6.538225E-2],"split_indices":[3,17,77,93,14,81,18,95,77,95,4,95,7,84,99,0,0,0,0,0,0,0,0,0,0,0,0,0,0,0,0],"split_type":[0,0,0,0,0,0,0,0,0,0,0,0,0,0,0,0,0,0,0,0,0,0,0,0,0,0,0,0,0,0,0],"sum_hessian":[4.1814848E4,3.2393645E4,9.421204E3,1.6187955E4,1.6205689E4,3.2216438E3,6.1995605E3,1.5229079E4,9.588763E2,1.1710029E4,4.4956606E3,2.8230286E3,3.986152E2,3.454141E3,2.7454194E3,1.3500118E4,1.7289613E3,6.0879095E2,3.5008536E2,9.645034E3,2.0649949E3,3.6354412E3,8.602198E2,1.592515E3,1.2305134E3,3.3393414E2,6.468107E1,3.446147E3,7.9941297E0,1.735648E3,1.0097715E3],"tree_param":{"num_deleted":"0","num_feature":"110","num_nodes":"31","size_leaf_vector":"1"}},{"base_weights":[-1.5972383E-2,-4.155093E-1,1.3507768E0,-7.981925E-1,-3.9958104E-2,1.252227E0,1.401924E0,-8.774792E-1,-1.0506111E-1,-1.3929114E-1,7.9929316E-1,1.202517E0,1.4276187E0,1.3737689E0,1.5331125E0,-4.5305025E-2,2.0853128E-2,-1.0972495E-2,2.9870132E-2,-1.37933735E-2,1.8337484E-2,3.0313333E-2,4.856128E-2,5.6459542E-2,6.587278E-2,5.9056718E-2,7.312637E-2,7.11711E-2,6.448134E-2,7.727785E-2,6.5015815E-2],"categories":[],"categories_nodes":[],"categories_segments":[],"categories_sizes":[],"default_left":[0,0,0,0,0,0,0,0,0,0,0,0,0,0,0,0,0,0,0,0,0,0,0,0,0,0,0,0,0,0,0],"id":9,"left_children":[1,3,5,7,9,11,13,15,17,19,21,23,25,27,29,-1,-1,-1,-1,-1,-1,-1,-1,-1,-1,-1,-1,-1,-1,-1,-1],"loss_changes":[2.2616951E4,4.605971E3,4.5466797E1,8.7226855E2,1.3486567E3,2.6274414E1,2.0643555E1,5.281465E2,1.311511E2,9.998367E2,5.6232666E1,1.964795E1,4.3270264E0,1.9390625E1,1.1184082E0,0E0,0E0,0E0,0E0,0E0,0E0,0E0,0E0,0E0,0E0,0E0,0E0,0E0,0E0,0E0,0E0],"parents":[2147483647,0,0,1,1,2,2,3,3,4,4,5,5,6,6,7,7,8,8,9,9,10,10,11,11,12,12,13,13,14,14],"right_children":[2,4,6,8,10,12,14,16,18,20,22,24,26,28,30,-1,-1,-1,-1,-1,-1,-1,-1,-1,-1,-1,-1,-1,-1,-1,-1],"split_conditions":[1E0,1E0,1E0,1E0,1E0,1E0,1E0,1E0,1E0,1E0,1E0,1E0,2.281E1,1E0,3.932E1,-4.5305025E-2,2.0853128E-2,-1.0972495E-2,2.9870132E-2,-1.37933735E-2,1.8337484E-2,3.0313333E-2,4.856128E-2,5.6459542E-2,6.587278E-2,5.9056718E-2,7.312637E-2,7.11711E-2,6.448134E-2,7.727785E-2,6.5015815E-2],"split_indices":[3,17,77,14,4,4,4,4,80,95,77,95,2,99,2,0,0,0,0,0,0,0,0,0,0,0,0,0,0,0,0],"split_type":[0,0,0,0,0,0,0,0,0,0,0,0,0,0,0,0,0,0,0,0,0,0,0,0,0,0,0,0,0,0,0],"sum_hessian":[4.1415895E4,3.2048088E4,9.367808E3,1.5872763E4,1.6175325E4,3.2094233E3,6.158385E3,1.4243228E4,1.6295353E3,1.446419E4,1.7111345E3,2.5067976E3,7.0262555E2,5.079677E3,1.0787078E3,1.3935427E4,3.0780084E2,1.401933E3,2.2760236E2,1.1390454E4,3.0737368E3,8.082489E2,9.028857E2,1.5370465E3,9.6975116E2,9.1486435E1,6.111391E2,3.1845398E3,1.895137E3,1.01861707E3,6.009069E1],"tree_param":{"num_deleted":"0","num_feature":"110","num_nodes":"31","size_leaf_vector":"1"}},{"base_weights":[-1.5443102E-2,-3.992554E-1,1.2935381E0,-7.738942E-1,-3.8072746E-2,1.1965612E0,1.3440379E0,-8.6017984E-1,-1.5163018E-1,-2.130731E-1,4.1317058E-1,1.2306223E0,9.545163E-1,1.2948982E0,1.4198716E0,-4.5462623E-2,-6.582988E-4,-1.2547028E-2,3.4475442E-2,-1.5206801E-2,2.5724923E-2,1.5609068E-2,4.1914154E-2,6.462767E-2,5.5363145E-2,7.438027E-2,4.4860065E-2,6.501247E-2,2.0386307E-2,6.384189E-2,7.214503E-2],"categories":[],"categories_nodes":[],"categories_segments":[],"categories_sizes":[],"default_left":[0,0,0,0,0,0,0,0,0,0,0,0,0,0,0,0,0,0,0,0,0,0,0,0,0,0,0,0,0,0,0],"id":10,"left_children":[1,3,5,7,9,11,13,15,17,19,21,23,25,27,29,-1,-1,-1,-1,-1,-1,-1,-1,-1,-1,-1,-1,-1,-1,-1,-1],"loss_changes":[2.0599426E4,4.2901094E3,4.39209E1,8.354697E2,1.2749119E3,2.514502E1,2.0910156E1,5.680713E2,1.5858713E2,7.7089954E2,1.9342847E2,1.992334E1,1.0834503E1,1.7111328E1,6.0307617E0,0E0,0E0,0E0,0E0,0E0,0E0,0E0,0E0,0E0,0E0,0E0,0E0,0E0,0E0,0E0,0E0],"parents":[2147483647,0,0,1,1,2,2,3,3,4,4,5,5,6,6,7,7,8,8,9,9,10,10,11,11,12,12,13,13,14,14],"right_children":[2,4,6,8,10,12,14,16,18,20,22,24,26,28,30,-1,-1,-1,-1,-1,-1,-1,-1,-1,-1,-1,-1,-1,-1,-1,-1],"split_conditions":[1E0,1E0,1E0,1E0,1E0,1E0,1E0,1E0,1E0,1E0,1E0,1E0,1.51E0,1E0,1E0,-4.5462623E-2,-6.582988E-4,-1.2547028E-2,3.4475442E-2,-1.5206801E-2,2.5724923E-2,1.5609068E-2,4.1914154E-2,6.462767E-2,5.5363145E-2,7.438027E-2,4.4860065E-2,6.501247E-2,2.0386307E-2,6.384189E-2,7.214503E-2],"split_indices":[3,17,77,95,14,81,95,93,93,93,4,79,0,85,17,0,0,0,0,0,0,0,0,0,0,0,0,0,0,0,0],"split_type":[0,0,0,0,0,0,0,0,0,0,0,0,0,0,0,0,0,0,0,0,0,0,0,0,0,0,0,0,0,0,0],"sum_hessian":[4.099976E4,3.1704297E4,9.295465E3,1.5561695E4,1.6142602E4,3.1914583E3,6.1040063E3,1.3666289E4,1.8954061E3,1.16320205E4,4.510581E3,2.7941729E3,3.9728537E2,3.7148728E3,2.3891338E3,1.291781E4,7.484798E2,1.695881E3,1.9952515E2,1.033862E4,1.2934001E3,3.6461423E3,8.6443884E2,1.853945E3,9.4022784E2,3.6144936E1,3.6114044E2,3.6921372E3,2.2735518E1,3.3914355E2,2.0499902E3],"tree_param":{"num_deleted":"0","num_feature":"110","num_nodes":"31","size_leaf_vector":"1"}},{"base_weights":[-1.4928396E-2,-3.8358584E-1,1.240935E0,-7.503478E-1,-3.6274787E-2,1.2987932E0,1.1558489E0,-8.2987654E-1,-7.412718E-2,-1.2875684E-1,7.382545E-1,1.345664E0,1.2285801E0,1.1096182E0,1.3521926E0,-4.2942222E-2,2.1466883E-2,-8.319567E-3,3.7260503E-2,-1.2933756E-2,1.7359909E-2,2.7668996E-2,4.51476E-2,5.9929874E-2,6.853728E-2,5.3884793E-2,6.368087E-2,5.570473E-2,-3.6439415E-2,6.8138026E-2,3.8192827E-2],"categories":[],"categories_nodes":[],"categories_segments":[],"categories_sizes":[],"default_left":[0,0,0,0,0,0,0,0,0,0,0,0,0,0,0,0,0,0,0,0,0,0,0,0,0,0,0,0,0,0,0],"id":11,"left_children":[1,3,5,7,9,11,13,15,17,19,21,23,25,27,29,-1,-1,-1,-1,-1,-1,-1,-1,-1,-1,-1,-1,-1,-1,-1,-1],"loss_changes":[1.8787242E4,3.9958965E3,4.383203E1,8.2048145E2,1.1542911E3,1.6359375E1,3.241504E1,4.983496E2,1.2158245E2,8.902318E2,5.18385E1,1.0425293E1,1.3594971E1,2.574585E1,3.3580322E0,0E0,0E0,0E0,0E0,0E0,0E0,0E0,0E0,0E0,0E0,0E0,0E0,0E0,0E0,0E0,0E0],"parents":[2147483647,0,0,1,1,2,2,3,3,4,4,5,5,6,6,7,7,8,8,9,9,10,10,11,11,12,12,13,13,14,14],"right_children":[2,4,6,8,10,12,14,16,18,20,22,24,26,28,30,-1,-1,-1,-1,-1,-1,-1,-1,-1,-1,-1,-1,-1,-1,-1,-1],"split_conditions":[1E0,1E0,1E0,1E0,1E0,1E0,1E0,1E0,1E0,1E0,1E0,1E0,1E0,1E0,1E0,-4.2942222E-2,2.1466883E-2,-8.319567E-3,3.7260503E-2,-1.2933756E-2,1.7359909E-2,2.7668996E-2,4.51476E-2,5.9929874E-2,6.853728E-2,5.3884793E-2,6.368087E-2,5.570473E-2,-3.6439415E-2,6.8138026E-2,3.8192827E-2],"split_indices":[3,17,99,14,4,18,4,4,4,95,77,17,77,82,59,0,0,0,0,0,0,0,0,0,0,0,0,0,0,0,0],"split_type":[0,0,0,0,0,0,0,0,0,0,0,0,0,0,0,0,0,0,0,0,0,0,0,0,0,0,0,0,0,0,0],"sum_hessian":[4.057662E4,3.1368982E4,9.207639E3,1.5256691E4,1.6112292E4,5.472261E3,3.735378E3,1.3651001E4,1.6056897E3,1.4394377E4,1.7179154E3,3.2707231E3,2.2015378E3,3.0288608E3,7.06517E2,1.3344336E4,3.0666507E2,1.4438923E3,1.6179733E2,1.1308128E4,3.0862488E3,8.114334E2,9.0648206E2,4.8364273E2,2.7870806E3,5.1180704E2,1.6897307E3,3.0218967E3,6.9642534E0,6.927572E2,1.3759841E1],"tree_param":{"num_deleted":"0","num_feature":"110","num_nodes":"31","size_leaf_vector":"1"}},{"base_weights":[-1.4420992E-2,-3.685395E-1,1.1923218E0,-7.275295E-1,-3.4562096E-2,1.0945914E0,1.2435639E0,-8.145329E-1,-1.16463035E-1,-1.9949788E-1,3.869815E-1,1.0987659E0,-3.7573088E-2,1.2985154E0,1.1743392E0,-4.320569E-2,7.930943E-4,-1.0589055E-2,3.366975E-2,-1.4325859E-2,2.4320137E-2,1.03061525E-2,3.0349389E-2,5.2533563E-2,6.348264E-2,6.507405E-2,2.6445834E-3,6.1269492E-2,5.4317772E-2],"categories":[],"categories_nodes":[],"categories_segments":[],"categories_sizes":[],"default_left":[0,0,0,0,0,0,0,0,0,0,0,0,0,0,0,0,0,0,0,0,0,0,0,0,0,0,0,0,0],"id":12,"left_children":[1,3,5,7,9,11,13,15,17,19,21,23,-1,25,27,-1,-1,-1,-1,-1,-1,-1,-1,-1,-1,-1,-1,-1,-1],"loss_changes":[1.715507E4,3.7211362E3,4.425E1,7.9516016E2,1.1180579E3,2.503247E1,2.1176758E1,5.391074E2,1.4059044E2,6.900106E2,1.7982233E2,2.4427979E1,0E0,1.218457E1,1.0577637E1,0E0,0E0,0E0,0E0,0E0,0E0,0E0,0E0,0E0,0E0,0E0,0E0,0E0,0E0],"parents":[2147483647,0,0,1,1,2,2,3,3,4,4,5,5,6,6,7,7,8,8,9,9,10,10,11,11,13,13,14,14],"right_children":[2,4,6,8,10,12,14,16,18,20,22,24,-1,26,28,-1,-1,-1,-1,-1,-1,-1,-1,-1,-1,-1,-1,-1,-1],"split_conditions":[1E0,1E0,1E0,1E0,1E0,1E0,1E0,1E0,1E0,1E0,1E0,1E0,-3.7573088E-2,1E0,1E0,-4.320569E-2,7.930943E-4,-1.0589055E-2,3.366975E-2,-1.4325859E-2,2.4320137E-2,1.03061525E-2,3.0349389E-2,5.2533563E-2,6.348264E-2,6.507405E-2,2.6445834E-3,6.1269492E-2,5.4317772E-2],"split_indices":[3,17,77,95,14,83,18,93,93,93,77,4,0,84,99,0,0,0,0,0,0,0,0,0,0,0,0,0,0],"split_type":[0,0,0,0,0,0,0,0,0,0,0,0,0,0,0,0,0,0,0,0,0,0,0,0,0,0,0,0,0],"sum_hessian":[4.0142754E4,3.1035951E4,9.106802E3,1.4957289E4,1.6078663E4,3.1401614E3,5.9666406E3,1.3092809E4,1.8644808E3,1.1557233E4,4.521429E3,3.1334805E3,6.681031E0,3.3163328E3,2.6503079E3,1.2355076E4,7.377325E2,1.6643618E3,2.0011903E2,1.0256578E4,1.3006559E3,2.4825554E3,2.0388735E3,2.450856E3,6.826244E2,3.3084116E3,7.921121E0,1.6689869E3,9.813209E2],"tree_param":{"num_deleted":"0","num_feature":"110","num_nodes":"29","size_leaf_vector":"1"}},{"base_weights":[-1.3932302E-2,-3.5397595E-1,1.1471882E0,-7.053345E-1,-3.29293E-2,1.0898199E0,1.2350028E0,-7.85067E-1,-4.640846E-2,-1.2014344E-1,6.928988E-1,1.1585312E0,9.893995E-1,1.2628362E0,1.0614018E0,-4.1620012E-2,-2.6139233E-4,-7.844853E-3,3.0815482E-2,-1.2169675E-2,1.6327502E-2,2.6082093E-2,4.227526E-2,5.324472E-2,6.0036123E-2,4.339792E-2,5.321175E-2,6.1354306E-2,6.876181E-2,5.3780127E-2,2.4294972E-3],"categories":[],"categories_nodes":[],"categories_segments":[],"categories_sizes":[],"default_left":[0,0,0,0,0,0,0,0,0,0,0,0,0,0,0,0,0,0,0,0,0,0,0,0,0,0,0,0,0,0,0],"id":13,"left_children":[1,3,5,7,9,11,13,15,17,19,21,23,25,27,29,-1,-1,-1,-1,-1,-1,-1,-1,-1,-1,-1,-1,-1,-1,-1,-1],"loss_changes":[1.5680235E4,3.4650137E3,4.3972656E1,7.705073E2,1.01623315E3,3.645752E1,1.5799316E1,4.829292E2,1.160958E2,7.8908545E2,4.456476E1,1.1481445E1,1.9259766E1,1.0575684E1,7.0873413E0,0E0,0E0,0E0,0E0,0E0,0E0,0E0,0E0,0E0,0E0,0E0,0E0,0E0,0E0,0E0,0E0],"parents":[2147483647,0,0,1,1,2,2,3,3,4,4,5,5,6,6,7,7,8,8,9,9,10,10,11,11,12,12,13,13,14,14],"right_children":[2,4,6,8,10,12,14,16,18,20,22,24,26,28,30,-1,-1,-1,-1,-1,-1,-1,-1,-1,-1,-1,-1,-1,-1,-1,-1],"split_conditions":[1E0,1E0,1E0,1E0,1E0,1E0,3.766E1,1E0,1E0,1E0,1E0,1E0,1E0,1E0,1E0,-4.1620012E-2,-2.6139233E-4,-7.844853E-3,3.0815482E-2,-1.2169675E-2,1.6327502E-2,2.6082093E-2,4.227526E-2,5.324472E-2,6.0036123E-2,4.339792E-2,5.321175E-2,6.1354306E-2,6.876181E-2,5.3780127E-2,2.4294972E-3],"split_indices":[3,17,95,14,4,99,2,11,80,95,77,77,77,80,68,0,0,0,0,0,0,0,0,0,0,0,0,0,0,0,0],"split_type":[0,0,0,0,0,0,0,0,0,0,0,0,0,0,0,0,0,0,0,0,0,0,0,0,0,0,0,0,0,0,0],"sum_hessian":[3.971169E4,3.0716738E4,8.994953E3,1.4665446E4,1.6051292E4,5.4487495E3,3.5462039E3,1.3082253E4,1.5831938E3,1.4330232E4,1.7210592E3,3.2288887E3,2.2198606E3,3.050795E3,4.9540897E2,1.2333584E4,7.486684E2,1.3576151E3,2.2557883E2,1.1231682E4,3.0985503E3,8.130553E2,9.0800397E2,1.01111743E3,2.2177712E3,8.5118146E2,1.3686792E3,2.3236465E3,7.271484E2,4.8849774E2,6.9112444E0],"tree_param":{"num_deleted":"0","num_feature":"110","num_nodes":"31","size_leaf_vector":"1"}},{"base_weights":[-1.3443389E-2,-3.3996975E-1,1.1050484E0,-6.8357617E-1,-3.1373046E-2,1.0077357E0,1.1564837E0,-7.712337E-1,-8.451693E-2,-1.8680371E-1,3.623912E-1,1.0425072E0,7.6495665E-1,1.1271998E0,1.2945411E0,-4.0245656E-2,2.416031E-2,-1.1720299E-2,1.9320445E-2,-1.4093456E-2,1.9735483E-2,9.684285E-3,2.8347388E-2,4.8340462E-2,5.7054203E-2,6.523516E-2,3.5408027E-2,5.890372E-2,5.212198E-2,6.5371476E-2,5.2925825E-2],"categories":[],"categories_nodes":[],"categories_segments":[],"categories_sizes":[],"default_left":[0,0,0,0,0,0,0,0,0,0,0,0,0,0,0,0,0,0,0,0,0,0,0,0,0,0,0,0,0,0,0],"id":14,"left_children":[1,3,5,7,9,11,13,15,17,19,21,23,25,27,29,-1,-1,-1,-1,-1,-1,-1,-1,-1,-1,-1,-1,-1,-1,-1,-1],"loss_changes":[1.4345025E4,3.2237317E3,4.3259766E1,7.5533203E2,9.804357E2,2.517627E1,2.1988281E1,5.30563E2,1.2978339E2,6.3505176E2,1.5634955E2,1.8959473E1,1.1007797E1,1.9437988E1,1.6828613E0,0E0,0E0,0E0,0E0,0E0,0E0,0E0,0E0,0E0,0E0,0E0,0E0,0E0,0E0,0E0,0E0],"parents":[2147483647,0,0,1,1,2,2,3,3,4,4,5,5,6,6,7,7,8,8,9,9,10,10,11,11,12,12,13,13,14,14],"right_children":[2,4,6,8,10,12,14,16,18,20,22,24,26,28,30,-1,-1,-1,-1,-1,-1,-1,-1,-1,-1,-1,-1,-1,-1,-1,-1],"split_conditions":[1E0,1E0,1E0,1E0,1E0,1E0,1E0,1E0,1E0,1E0,1E0,1E0,1.51E0,1E0,3.932E1,-4.0245656E-2,2.416031E-2,-1.1720299E-2,1.9320445E-2,-1.4093456E-2,1.9735483E-2,9.684285E-3,2.8347388E-2,4.8340462E-2,5.7054203E-2,6.523516E-2,3.5408027E-2,5.890372E-2,5.212198E-2,6.5371476E-2,5.2925825E-2],"split_indices":[3,17,77,95,14,81,4,4,78,78,77,95,0,99,2,0,0,0,0,0,0,0,0,0,0,0,0,0,0,0,0],"split_type":[0,0,0,0,0,0,0,0,0,0,0,0,0,0,0,0,0,0,0,0,0,0,0,0,0,0,0,0,0,0,0],"sum_hessian":[3.9276055E4,3.0401502E4,8.874552E3,1.4384213E4,1.601729E4,3.0758337E3,5.7987183E3,1.2547856E4,1.8363569E3,1.1484525E4,4.532764E3,2.687614E3,3.8821985E2,4.791533E3,1.00718463E3,1.2220127E4,3.2772946E2,1.3933695E3,4.4298755E2,9.871289E3,1.6132362E3,2.4851304E3,2.0476338E3,1.526337E3,1.1612769E3,3.4870056E1,3.533498E2,2.9862397E3,1.8052936E3,9.507302E2,5.645444E1],"tree_param":{"num_deleted":"0","num_feature":"110","num_nodes":"31","size_leaf_vector":"1"}},{"base_weights":[-1.2971061E-2,-3.2643342E-1,1.0655798E0,-6.6261137E-1,-2.9886575E-2,9.688589E-1,1.1169349E0,-7.228787E-1,2.0352443E-1,-1.1219792E-1,6.516815E-1,9.2012423E-1,1.1441088E0,1.173806E0,1.0457023E0,-3.963736E-2,-4.031877E-3,-1.6081011E-3,3.0306166E-2,-1.21207675E-2,1.3099739E-2,3.3687633E-2,-2.5095582E-2,4.78315E-2,3.484584E-2,4.4235475E-2,5.9093207E-2,5.884214E-2,-2.3915006E-3,5.3896736E-2,4.5010585E-2],"categories":[],"categories_nodes":[],"categories_segments":[],"categories_sizes":[],"default_left":[0,0,0,0,0,0,0,0,0,0,0,0,0,0,0,0,0,0,0,0,0,0,0,0,0,0,0,0,0,0,0],"id":15,"left_children":[1,3,5,7,9,11,13,15,17,19,21,23,25,27,29,-1,-1,-1,-1,-1,-1,-1,-1,-1,-1,-1,-1,-1,-1,-1,-1],"loss_changes":[1.3133627E4,3.0006484E3,4.2370117E1,7.365244E2,8.973102E2,2.4923584E1,2.1893555E1,5.9177783E2,8.717415E1,6.9542896E2,4.4220276E1,1.876538E1,5.3950806E0,1.1799805E1,1.0954346E1,0E0,0E0,0E0,0E0,0E0,0E0,0E0,0E0,0E0,0E0,0E0,0E0,0E0,0E0,0E0,0E0],"parents":[2147483647,0,0,1,1,2,2,3,3,4,4,5,5,6,6,7,7,8,8,9,9,10,10,11,11,12,12,13,13,14,14],"right_children":[2,4,6,8,10,12,14,16,18,20,22,24,26,28,30,-1,-1,-1,-1,-1,-1,-1,-1,-1,-1,-1,-1,-1,-1,-1,-1],"split_conditions":[1E0,1E0,1E0,1E0,1E0,1E0,1E0,1E0,1E0,1E0,1E0,1E0,2.281E1,1E0,1E0,-3.963736E-2,-4.031877E-3,-1.6081011E-3,3.0306166E-2,-1.21207675E-2,1.3099739E-2,3.3687633E-2,-2.5095582E-2,4.78315E-2,3.484584E-2,4.4235475E-2,5.9093207E-2,5.884214E-2,-2.3915006E-3,5.3896736E-2,4.5010585E-2],"split_indices":[3,17,77,93,4,4,18,78,77,14,72,81,2,84,6,0,0,0,0,0,0,0,0,0,0,0,0,0,0,0,0],"split_type":[0,0,0,0,0,0,0,0,0,0,0,0,0,0,0,0,0,0,0,0,0,0,0,0,0,0,0,0,0,0,0],"sum_hessian":[3.8845074E4,3.0098236E4,8.74684E3,1.4105929E4,1.5992307E4,3.0404294E3,5.7064106E3,1.318842E4,9.175089E2,1.4269812E4,1.7224956E3,2.3837817E3,6.5664764E2,3.164463E3,2.5419478E3,1.1894229E4,1.2941914E3,5.792997E2,3.382092E2,1.0586209E4,3.6836028E3,1.6905668E3,3.1928856E1,2.0458883E3,3.3789343E2,8.653563E1,5.7011206E2,3.1566526E3,7.810324E0,2.0756865E3,4.662614E2],"tree_param":{"num_deleted":"0","num_feature":"110","num_nodes":"31","size_leaf_vector":"1"}},{"base_weights":[-1.2509288E-2,-3.134306E-1,1.0283468E0,-6.419169E-1,-2.8479844E-2,1.0878044E0,9.42026E-1,-7.2268075E-1,-2.0992227E-5,-1.0689328E-1,6.1838746E-1,1.0576057E0,1.2038817E0,8.954124E-1,1.144354E0,-3.924616E-2,-2.8348481E-3,-5.4509686E-3,3.2181147E-2,-1.113687E-2,1.5389219E-2,3.196586E-2,-2.3909751E-2,5.300505E-2,-3.733283E-2,6.062158E-2,3.3688452E-2,4.4999342E-2,-4.4276953E-2,5.7771504E-2,2.7359668E-2],"categories":[],"categories_nodes":[],"categories_segments":[],"categories_sizes":[],"default_left":[0,0,0,0,0,0,0,0,0,0,0,0,0,0,0,0,0,0,0,0,0,0,0,0,0,0,0,0,0,0,0],"id":16,"left_children":[1,3,5,7,9,11,13,15,17,19,21,23,25,27,29,-1,-1,-1,-1,-1,-1,-1,-1,-1,-1,-1,-1,-1,-1,-1,-1],"loss_changes":[1.2031891E4,2.7892292E3,4.319336E1,7.175962E2,8.095E2,1.6586426E1,3.2185303E1,5.0961377E2,1.0866972E2,6.838155E2,3.990631E1,1.9030762E1,3.9176025E0,2.4149658E1,3.705017E0,0E0,0E0,0E0,0E0,0E0,0E0,0E0,0E0,0E0,0E0,0E0,0E0,0E0,0E0,0E0,0E0],"parents":[2147483647,0,0,1,1,2,2,3,3,4,4,5,5,6,6,7,7,8,8,9,9,10,10,11,11,12,12,13,13,14,14],"right_children":[2,4,6,8,10,12,14,16,18,20,22,24,26,28,30,-1,-1,-1,-1,-1,-1,-1,-1,-1,-1,-1,-1,-1,-1,-1,-1],"split_conditions":[1E0,1E0,1E0,1E0,1E0,1E0,1E0,1E0,1E0,1E0,1E0,5.476E1,1E0,1E0,1E0,-3.924616E-2,-2.8348481E-3,-5.4509686E-3,3.2181147E-2,-1.113687E-2,1.5389219E-2,3.196586E-2,-2.3909751E-2,5.300505E-2,-3.733283E-2,6.062158E-2,3.3688452E-2,4.4999342E-2,-4.4276953E-2,5.7771504E-2,2.7359668E-2],"split_indices":[3,17,99,14,4,80,4,91,80,95,72,2,102,82,59,0,0,0,0,0,0,0,0,0,0,0,0,0,0,0,0],"split_type":[0,0,0,0,0,0,0,0,0,0,0,0,0,0,0,0,0,0,0,0,0,0,0,0,0,0,0,0,0,0,0],"sum_hessian":[3.8412035E4,2.9797883E4,8.614151E3,1.3840985E4,1.5956897E4,5.0938853E3,3.5202656E3,1.2294016E4,1.5469692E3,1.4232469E4,1.7244291E3,4.0502764E3,1.0436089E3,2.8655151E3,6.547504E2,1.1243067E4,1.0509486E3,1.323646E3,2.2332321E2,1.1125045E4,3.1074236E3,1.6925417E3,3.1887428E1,4.0450947E3,5.1817966E0,1.0257777E3,1.7831213E1,2.8586672E3,6.8478866E0,6.419095E2,1.2840989E1],"tree_param":{"num_deleted":"0","num_feature":"110","num_nodes":"31","size_leaf_vector":"1"}},{"base_weights":[-1.2061651E-2,-3.0087686E-1,9.930472E-1,-6.217406E-1,-2.7134737E-2,9.343351E-1,1.0836935E0,-7.113323E-1,-3.1664263E-2,1.0760477E-1,-3.9476845E-1,1.0037451E0,8.3423686E-1,1.1125288E0,9.050948E-1,-3.729665E-2,2.539411E-2,2.2003655E-3,-4.7821652E-2,1.2522582E-3,3.3206716E-2,-2.410728E-2,8.789188E-3,4.5414727E-2,5.238849E-2,3.578036E-2,4.5425072E-2,5.3806137E-2,6.1397005E-2,4.5980357E-2,-4.447955E-3],"categories":[],"categories_nodes":[],"categories_segments":[],"categories_sizes":[],"default_left":[0,0,0,0,0,0,0,0,0,0,0,0,0,0,0,0,0,0,0,0,0,0,0,0,0,0,0,0,0,0,0],"id":17,"left_children":[1,3,5,7,9,11,13,15,17,19,21,23,25,27,29,-1,-1,-1,-1,-1,-1,-1,-1,-1,-1,-1,-1,-1,-1,-1,-1],"loss_changes":[1.1027332E4,2.5917947E3,4.411328E1,7.181494E2,7.8885065E2,3.4966797E1,1.612622E1,4.97917E2,1.2542638E2,5.354533E2,2.1301855E2,1.1815186E1,1.799231E1,1.0695068E1,6.830658E0,0E0,0E0,0E0,0E0,0E0,0E0,0E0,0E0,0E0,0E0,0E0,0E0,0E0,0E0,0E0,0E0],"parents":[2147483647,0,0,1,1,2,2,3,3,4,4,5,5,6,6,7,7,8,8,9,9,10,10,11,11,12,12,13,13,14,14],"right_children":[2,4,6,8,10,12,14,16,18,20,22,24,26,28,30,-1,-1,-1,-1,-1,-1,-1,-1,-1,-1,-1,-1,-1,-1,-1,-1],"split_conditions":[1E0,1E0,1E0,1E0,1E0,1E0,3.766E1,1E0,1E0,1E0,1E0,1E0,1E0,1E0,1E0,-3.729665E-2,2.539411E-2,2.2003655E-3,-4.7821652E-2,1.2522582E-3,3.3206716E-2,-2.410728E-2,8.789188E-3,4.5414727E-2,5.238849E-2,3.578036E-2,4.5425072E-2,5.3806137E-2,6.1397005E-2,4.5980357E-2,-4.447955E-3],"split_indices":[3,17,95,95,81,99,2,4,87,93,93,77,77,80,68,0,0,0,0,0,0,0,0,0,0,0,0,0,0,0,0],"split_type":[0,0,0,0,0,0,0,0,0,0,0,0,0,0,0,0,0,0,0,0,0,0,0,0,0,0,0,0,0,0,0],"sum_hessian":[3.7985176E4,2.9507096E4,8.47808E3,1.3583767E4,1.5923329E4,5.1522495E3,3.3258308E3,1.1793018E4,1.790749E3,1.1653114E4,4.270215E3,3.0371824E3,2.115067E3,2.8590056E3,4.6682523E2,1.1467951E4,3.2506628E2,1.6561803E3,1.3456877E2,1.0148637E4,1.504477E3,3.7032378E3,5.6697687E2,9.6549884E2,2.0716836E3,8.1839856E2,1.2966685E3,2.181259E3,6.777466E2,4.601819E2,6.643349E0],"tree_param":{"num_deleted":"0","num_feature":"110","num_nodes":"31","size_leaf_vector":"1"}},{"base_weights":[-1.1627933E-2,-2.886787E-1,9.595957E-1,-6.022989E-1,-2.584204E-2,8.5978615E-1,1.0132369E0,-6.637889E-1,2.4866223E-1,-1.6362268E-1,3.1758457E-1,8.110333E-1,1.0373489E0,9.8261374E-1,1.1593299E0,-3.673537E-2,-8.9480885E-4,9.4491633E-4,3.177196E-2,-1.2180824E-2,2.2577671E-2,2.3372626E-2,4.9893484E-3,4.2404674E-2,2.9393641E-2,5.3135242E-2,3.171716E-2,5.1776886E-2,4.4793494E-2,5.9788473E-2,5.3017545E-2],"categories":[],"categories_nodes":[],"categories_segments":[],"categories_sizes":[],"default_left":[0,0,0,0,0,0,0,0,0,0,0,0,0,0,0,0,0,0,0,0,0,0,0,0,0,0,0,0,0,0,0],"id":18,"left_children":[1,3,5,7,9,11,13,15,17,19,21,23,25,27,29,-1,-1,-1,-1,-1,-1,-1,-1,-1,-1,-1,-1,-1,-1,-1,-1],"loss_changes":[1.0110957E4,2.409958E3,4.3780273E1,6.9768164E2,7.527317E2,2.4453125E1,2.3103516E1,5.694551E2,7.9884735E1,5.5880005E2,1.4862848E2,1.849939E1,5.7213745E0,1.9669434E1,2.098999E0,0E0,0E0,0E0,0E0,0E0,0E0,0E0,0E0,0E0,0E0,0E0,0E0,0E0,0E0,0E0,0E0],"parents":[2147483647,0,0,1,1,2,2,3,3,4,4,5,5,6,6,7,7,8,8,9,9,10,10,11,11,12,12,13,13,14,14],"right_children":[2,4,6,8,10,12,14,16,18,20,22,24,26,28,30,-1,-1,-1,-1,-1,-1,-1,-1,-1,-1,-1,-1,-1,-1,-1,-1],"split_conditions":[1E0,1E0,1E0,1E0,1E0,1E0,1E0,1E0,1E0,1E0,1E0,1E0,1E0,1E0,1E0,-3.673537E-2,-8.9480885E-4,9.4491633E-4,3.177196E-2,-1.2180824E-2,2.2577671E-2,2.3372626E-2,4.9893484E-3,4.2404674E-2,2.9393641E-2,5.3135242E-2,3.171716E-2,5.1776886E-2,4.4793494E-2,5.9788473E-2,5.3017545E-2],"split_indices":[3,17,77,93,14,4,4,91,77,93,99,81,109,99,79,0,0,0,0,0,0,0,0,0,0,0,0,0,0,0,0],"split_type":[0,0,0,0,0,0,0,0,0,0,0,0,0,0,0,0,0,0,0,0,0,0,0,0,0,0,0,0,0,0,0],"sum_hessian":[3.7574234E4,2.9235293E4,8.338942E3,1.3329302E4,1.5905991E4,2.920962E3,5.4179805E3,1.2431246E4,8.980558E2,1.1352116E4,4.553875E3,2.2960977E3,6.248643E2,4.4854873E3,9.324934E2,1.1201224E4,1.230023E3,5.640388E2,3.34017E2,1.0046353E4,1.3057634E3,2.6969443E3,1.8569308E3,1.9666901E3,3.294075E2,5.863367E2,3.8527615E1,2.7790205E3,1.7064667E3,6.734711E2,2.590223E2],"tree_param":{"num_deleted":"0","num_feature":"110","num_nodes":"31","size_leaf_vector":"1"}},{"base_weights":[-1.1199666E-2,-2.7694353E-1,9.277712E-1,-5.830197E-1,-2.4619848E-2,8.685703E-1,1.019673E0,-6.732635E-1,-4.9700486E-3,-1.4089672E-1,3.5928276E-1,9.379239E-1,7.693932E-1,1.0488093E0,8.4025407E-1,-3.6362343E-2,5.2859443E-3,3.3461356E-3,-4.552107E-2,-1.1284738E-2,2.0478401E-2,5.8144E-3,2.766308E-2,4.215026E-2,4.911442E-2,3.9017245E-2,-8.4342103E-4,5.0597794E-2,5.831463E-2,4.273624E-2,-6.2407395E-3],"categories":[],"categories_nodes":[],"categories_segments":[],"categories_sizes":[],"default_left":[0,0,0,0,0,0,0,0,0,0,0,0,0,0,0,0,0,0,0,0,0,0,0,0,0,0,0,0,0,0,0],"id":19,"left_children":[1,3,5,7,9,11,13,15,17,19,21,23,25,27,29,-1,-1,-1,-1,-1,-1,-1,-1,-1,-1,-1,-1,-1,-1,-1,-1],"loss_changes":[9.274466E3,2.2373074E3,4.3720703E1,6.8286084E2,7.0892303E2,3.362378E1,1.5881348E1,4.7621973E2,1.1519403E2,5.690629E2,1.7395828E2,1.1526855E1,1.7755371E1,1.074585E1,6.4328613E0,0E0,0E0,0E0,0E0,0E0,0E0,0E0,0E0,0E0,0E0,0E0,0E0,0E0,0E0,0E0,0E0],"parents":[2147483647,0,0,1,1,2,2,3,3,4,4,5,5,6,6,7,7,8,8,9,9,10,10,11,11,12,12,13,13,14,14],"right_children":[2,4,6,8,10,12,14,16,18,20,22,24,26,28,30,-1,-1,-1,-1,-1,-1,-1,-1,-1,-1,-1,-1,-1,-1,-1,-1],"split_conditions":[1E0,1E0,1E0,1E0,1E0,1E0,3.766E1,1E0,1E0,1E0,1E0,1E0,1E0,1E0,1E0,-3.6362343E-2,5.2859443E-3,3.3461356E-3,-4.552107E-2,-1.1284738E-2,2.0478401E-2,5.8144E-3,2.766308E-2,4.215026E-2,4.911442E-2,3.9017245E-2,-8.4342103E-4,5.0597794E-2,5.831463E-2,4.273624E-2,-6.2407395E-3],"split_indices":[3,17,95,95,95,99,2,11,87,11,77,77,65,80,68,0,0,0,0,0,0,0,0,0,0,0,0,0,0,0,0],"split_type":[0,0,0,0,0,0,0,0,0,0,0,0,0,0,0,0,0,0,0,0,0,0,0,0,0,0,0,0,0,0,0],"sum_hessian":[3.716634E4,2.8968496E4,8.197845E3,1.3089379E4,1.5879117E4,4.9923486E3,3.2054963E3,1.1321696E4,1.7676825E3,1.218818E4,3.6909373E3,2.9329258E3,2.059423E3,2.753503E3,4.519934E2,1.0588015E4,7.336815E2,1.638511E3,1.2917154E2,1.0561752E4,1.6264277E3,1.6391698E3,2.0517673E3,9.4056616E2,1.9923597E3,2.031139E3,2.8283936E1,2.1033223E3,6.5018054E2,4.4542877E2,6.564626E0],"tree_param":{"num_deleted":"0","num_feature":"110","num_nodes":"31","size_leaf_vector":"1"}},{"base_weights":[-1.0788642E-2,-2.6559916E-1,8.97292E-1,-5.6432223E-1,-2.3446226E-2,7.9613155E-1,9.521504E-1,-6.4278257E-1,1.06868796E-1,-9.650001E-2,5.760725E-1,7.4730253E-1,9.7561723E-1,1.0142375E0,8.7513536E-1,-3.39889E-2,3.2080293E-2,3.7437374E-5,6.020246E-2,-1.491182E-2,6.143009E-3,2.1048315E-2,3.5757434E-2,3.7603766E-2,-4.4604514E-2,3.497664E-2,5.0834816E-2,5.0876297E-2,-1.06229335E-2,4.5459066E-2,3.6110085E-2],"categories":[],"categories_nodes":[],"categories_segments":[],"categories_sizes":[],"default_left":[0,0,0,0,0,0,0,0,0,0,0,0,0,0,0,0,0,0,0,0,0,0,0,0,0,0,0,0,0,0,0],"id":20,"left_children":[1,3,5,7,9,11,13,15,17,19,21,23,25,27,29,-1,-1,-1,-1,-1,-1,-1,-1,-1,-1,-1,-1,-1,-1,-1,-1],"loss_changes":[8.508729E3,2.0771284E3,4.395703E1,6.7707837E2,6.9468445E2,2.4154297E1,2.4068848E1,5.473696E2,1.5676132E2,6.256981E2,3.6863464E1,1.8168945E1,6.1382446E0,1.1847168E1,1.1510864E1,0E0,0E0,0E0,0E0,0E0,0E0,0E0,0E0,0E0,0E0,0E0,0E0,0E0,0E0,0E0,0E0],"parents":[2147483647,0,0,1,1,2,2,3,3,4,4,5,5,6,6,7,7,8,8,9,9,10,10,11,11,12,12,13,13,14,14],"right_children":[2,4,6,8,10,12,14,16,18,20,22,24,26,28,30,-1,-1,-1,-1,-1,-1,-1,-1,-1,-1,-1,-1,-1,-1,-1,-1],"split_conditions":[1E0,1E0,1E0,1E0,1E0,1E0,1E0,1E0,1E0,1E0,1E0,1E0,2.281E1,1E0,1E0,-3.39889E-2,3.2080293E-2,3.7437374E-5,6.020246E-2,-1.491182E-2,6.143009E-3,2.1048315E-2,3.5757434E-2,3.7603766E-2,-4.4604514E-2,3.497664E-2,5.0834816E-2,5.0876297E-2,-1.06229335E-2,4.5459066E-2,3.6110085E-2],"split_indices":[3,17,77,78,4,4,18,80,4,10,77,83,2,84,6,0,0,0,0,0,0,0,0,0,0,0,0,0,0,0,0],"split_type":[0,0,0,0,0,0,0,0,0,0,0,0,0,0,0,0,0,0,0,0,0,0,0,0,0,0,0,0,0,0,0],"sum_hessian":[3.6770445E4,2.8713928E4,8.056518E3,1.2854776E4,1.5859152E4,2.8382366E3,5.2182812E3,1.1509401E4,1.3453748E3,1.4137304E4,1.7218488E3,2.2352903E3,6.029463E2,2.8824067E3,2.3358748E3,1.1187625E4,3.2177652E2,1.2276375E3,1.1773727E2,7.3643027E3,6.7730015E3,8.159163E2,9.0593243E2,2.229341E3,5.9490957E0,8.042886E1,5.2251746E2,2.8748706E3,7.5360904E0,1.9065056E3,4.2936926E2],"tree_param":{"num_deleted":"0","num_feature":"110","num_nodes":"31","size_leaf_vector":"1"}},{"base_weights":[-1.03841275E-2,-2.547213E-1,8.6808753E-1,-5.45998E-1,-2.2331906E-2,8.0829406E-1,9.6147215E-1,-6.0841924E-1,2.8401586E-1,1.023202E-1,-3.6674178E-1,8.7893695E-1,7.080312E-1,9.910171E-1,7.8072757E-1,-3.331787E-2,1.3123102E-2,3.23298E-3,3.2332655E-2,1.483647E-2,-5.969096E-3,-2.2334421E-2,7.127009E-3,3.917747E-2,4.6205256E-2,2.952539E-2,3.914325E-2,4.767111E-2,5.5578392E-2,4.1635636E-2,2.3953868E-2],"categories":[],"categories_nodes":[],"categories_segments":[],"categories_sizes":[],"default_left":[0,0,0,0,0,0,0,0,0,0,0,0,0,0,0,0,0,0,0,0,0,0,0,0,0,0,0,0,0,0,0],"id":21,"left_children":[1,3,5,7,9,11,13,15,17,19,21,23,25,27,29,-1,-1,-1,-1,-1,-1,-1,-1,-1,-1,-1,-1,-1,-1,-1,-1],"loss_changes":[7.8081235E3,1.9265045E3,4.3424805E1,6.545515E2,6.7971954E2,3.3604492E1,1.5699707E1,5.9290283E2,7.028563E1,5.0109778E2,1.7137299E2,1.1472168E1,1.7149658E1,1.0939697E1,6.471344E0,0E0,0E0,0E0,0E0,0E0,0E0,0E0,0E0,0E0,0E0,0E0,0E0,0E0,0E0,0E0,0E0],"parents":[2147483647,0,0,1,1,2,2,3,3,4,4,5,5,6,6,7,7,8,8,9,9,10,10,11,11,12,12,13,13,14,14],"right_children":[2,4,6,8,10,12,14,16,18,20,22,24,26,28,30,-1,-1,-1,-1,-1,-1,-1,-1,-1,-1,-1,-1,-1,-1,-1,-1],"split_conditions":[1E0,1E0,1E0,1E0,1E0,1E0,3.766E1,1E0,1E0,1E0,1E0,1E0,1E0,1E0,4.699E1,-3.331787E-2,1.3123102E-2,3.23298E-3,3.2332655E-2,1.483647E-2,-5.969096E-3,-2.2334421E-2,7.127009E-3,3.917747E-2,4.6205256E-2,2.952539E-2,3.914325E-2,4.767111E-2,5.5578392E-2,4.1635636E-2,2.3953868E-2],"split_indices":[3,17,95,93,81,99,2,92,77,99,93,77,77,80,2,0,0,0,0,0,0,0,0,0,0,0,0,0,0,0,0],"split_type":[0,0,0,0,0,0,0,0,0,0,0,0,0,0,0,0,0,0,0,0,0,0,0,0,0,0,0,0,0,0,0],"sum_hessian":[3.6375176E4,2.846004E4,7.9151357E3,1.2629229E4,1.5830811E4,4.8313267E3,3.0838093E3,1.1746127E4,8.831019E2,1.1624326E4,4.2064844E3,2.8297695E3,2.0015569E3,2.6466912E3,4.3711804E2,1.1013644E4,7.324831E2,5.509906E2,3.3211133E2,6.193205E3,5.4311206E3,3.635854E3,5.706305E2,9.152543E2,1.9145154E3,7.821363E2,1.2194205E3,2.024302E3,6.2238916E2,3.7135904E2,6.575899E1],"tree_param":{"num_deleted":"0","num_feature":"110","num_nodes":"31","size_leaf_vector":"1"}},{"base_weights":[-9.9943215E-3,-2.441296E-1,8.4006107E-1,-4.551317E-1,6.682014E-2,8.0358875E-1,1.0002487E0,-5.1224375E-1,5.2442145E-1,-1.415409E-1,3.353908E-1,8.743804E-1,7.035604E-1,8.43513E-1,1.0272795E0,-3.380781E-2,-1.0145687E-2,3.1997647E-2,6.4137536E-3,2.774773E-3,-2.330525E-2,2.3742115E-2,-4.701623E-3,3.8718306E-2,4.5936365E-2,3.5803623E-2,-4.5673604E-4,4.4204567E-2,1.3691197E-2,4.2551864E-2,5.2705973E-2],"categories":[],"categories_nodes":[],"categories_segments":[],"categories_sizes":[],"default_left":[0,0,0,0,0,0,0,0,0,0,0,0,0,0,0,0,0,0,0,0,0,0,0,0,0,0,0,0,0,0,0],"id":22,"left_children":[1,3,5,7,9,11,13,15,17,19,21,23,25,27,29,-1,-1,-1,-1,-1,-1,-1,-1,-1,-1,-1,-1,-1,-1,-1,-1],"loss_changes":[7.165937E3,1.8521836E3,4.462256E1,9.41115E2,6.386999E2,4.4268066E1,5.225464E0,8.056128E2,4.2344727E1,4.1106787E2,2.98641E2,1.573291E1,2.3475952E1,4.776596E0,4.8825684E0,0E0,0E0,0E0,0E0,0E0,0E0,0E0,0E0,0E0,0E0,0E0,0E0,0E0,0E0,0E0,0E0],"parents":[2147483647,0,0,1,1,2,2,3,3,4,4,5,5,6,6,7,7,8,8,9,9,10,10,11,11,12,12,13,13,14,14],"right_children":[2,4,6,8,10,12,14,16,18,20,22,24,26,28,30,-1,-1,-1,-1,-1,-1,-1,-1,-1,-1,-1,-1,-1,-1,-1,-1],"split_conditions":[1E0,1E0,1E0,1E0,1E0,1E0,6.577E1,1E0,1E0,1E0,1E0,1E0,1E0,1E0,1E0,-3.380781E-2,-1.0145687E-2,3.1997647E-2,6.4137536E-3,2.774773E-3,-2.330525E-2,2.3742115E-2,-4.701623E-3,3.8718306E-2,4.5936365E-2,3.5803623E-2,-4.5673604E-4,4.4204567E-2,1.3691197E-2,4.2551864E-2,5.2705973E-2],"split_indices":[3,10,4,4,77,99,1,21,81,18,81,77,65,81,17,0,0,0,0,0,0,0,0,0,0,0,0,0,0,0,0],"split_type":[0,0,0,0,0,0,0,0,0,0,0,0,0,0,0,0,0,0,0,0,0,0,0,0,0,0,0,0,0,0,0],"sum_hessian":[3.6002645E4,2.822829E4,7.7743545E3,1.681656E4,1.1411729E4,6.337434E3,1.4369208E3,1.5890552E4,9.260086E2,6.42646E3,4.985268E3,3.7065264E3,2.6309077E3,2.1609863E2,1.2208221E3,1.038592E4,5.504632E3,7.1644904E2,2.0955957E2,3.9993586E3,2.4271013E3,3.763121E3,1.222147E3,1.1442935E3,2.562233E3,2.585512E3,4.5395847E1,2.0121446E2,1.488417E1,1.6567012E2,1.055152E3],"tree_param":{"num_deleted":"0","num_feature":"110","num_nodes":"31","size_leaf_vector":"1"}},{"base_weights":[-9.609245E-3,-2.338244E-1,8.130596E-1,-5.160086E-1,-1.4148892E-2,7.106186E-1,8.694286E-1,-5.999093E-1,1.01467535E-1,-1.2167775E-1,3.3668935E-1,7.474322E-1,4.65224E-1,9.344646E-1,7.8933114E-1,-3.3321396E-2,3.6176157E-3,-4.7849896E-3,2.2394344E-2,-1.0150387E-2,2.0377029E-2,5.6614634E-3,2.5714044E-2,4.0792853E-2,3.0681228E-2,5.3022023E-2,2.0263033E-2,4.6894427E-2,-1.3929458E-2,4.1216265E-2,3.164647E-2],"categories":[],"categories_nodes":[],"categories_segments":[],"categories_sizes":[],"default_left":[0,0,0,0,0,0,0,0,0,0,0,0,0,0,0,0,0,0,0,0,0,0,0,0,0,0,0,0,0,0,0],"id":23,"left_children":[1,3,5,7,9,11,13,15,17,19,21,23,25,27,29,-1,-1,-1,-1,-1,-1,-1,-1,-1,-1,-1,-1,-1,-1,-1,-1],"loss_changes":[6.576374E3,1.7367405E3,4.3476074E1,6.3540186E2,5.943784E2,2.4186646E1,2.489795E1,4.8285815E2,1.00302315E2,5.1912976E2,1.4662015E2,2.110608E1,1.230925E1,1.1519043E1,1.1583008E1,0E0,0E0,0E0,0E0,0E0,0E0,0E0,0E0,0E0,0E0,0E0,0E0,0E0,0E0,0E0,0E0],"parents":[2147483647,0,0,1,1,2,2,3,3,4,4,5,5,6,6,7,7,8,8,9,9,10,10,11,11,12,12,13,13,14,14],"right_children":[2,4,6,8,10,12,14,16,18,20,22,24,26,28,30,-1,-1,-1,-1,-1,-1,-1,-1,-1,-1,-1,-1,-1,-1,-1,-1],"split_conditions":[1E0,1E0,1E0,1E0,1E0,1E0,1E0,1E0,1E0,1E0,1E0,1E0,1.51E0,1E0,1E0,-3.3321396E-2,3.6176157E-3,-4.7849896E-3,2.2394344E-2,-1.0150387E-2,2.0377029E-2,5.6614634E-3,2.5714044E-2,4.0792853E-2,3.0681228E-2,5.3022023E-2,2.0263033E-2,4.6894427E-2,-1.3929458E-2,4.1216265E-2,3.164647E-2],"split_indices":[3,17,77,14,95,81,18,91,77,93,77,79,0,84,6,0,0,0,0,0,0,0,0,0,0,0,0,0,0,0,0],"split_type":[0,0,0,0,0,0,0,0,0,0,0,0,0,0,0,0,0,0,0,0,0,0,0,0,0,0,0,0,0,0,0],"sum_hessian":[3.5651E4,2.8016053E4,7.634949E3,1.226268E4,1.5753373E4,2.7148235E3,4.9201255E3,1.0795807E4,1.4668723E3,1.2058271E4,3.6951018E3,2.3589004E3,3.5592313E2,2.7094739E3,2.2106516E3,9.823778E3,9.720288E2,9.352762E2,5.315961E2,1.0452546E4,1.6057256E3,1.6369702E3,2.0581313E3,1.5573995E3,8.015008E2,3.1047758E1,3.2487537E2,2.7020737E3,7.400086E0,1.8029733E3,4.0767834E2],"tree_param":{"num_deleted":"0","num_feature":"110","num_nodes":"31","size_leaf_vector":"1"}},{"base_weights":[-9.244491E-3,-2.2406676E-1,7.8701204E-1,-4.2679664E-1,6.88145E-2,7.500285E-1,9.5077115E-1,-5.23341E-1,1.2864675E-1,-1.2734014E-1,3.1906438E-1,8.221476E-1,6.4896023E-1,8.685324E-1,1.0059772E0,-2.897186E-2,2.0150734E-2,1.7906694E-2,-3.3059642E-3,2.9683702E-3,-2.1962143E-2,2.2387689E-2,-4.119277E-3,3.8422745E-2,4.5463037E-2,3.2697827E-2,-5.6183722E-2,2.914842E-2,4.5594458E-2,5.1076688E-2,3.6663778E-2],"categories":[],"categories_nodes":[],"categories_segments":[],"categories_sizes":[],"default_left":[0,0,0,0,0,0,0,0,0,0,0,0,0,0,0,0,0,0,0,0,0,0,0,0,0,0,0,0,0,0,0],"id":24,"left_children":[1,3,5,7,9,11,13,15,17,19,21,23,25,27,29,-1,-1,-1,-1,-1,-1,-1,-1,-1,-1,-1,-1,-1,-1,-1,-1],"loss_changes":[6.0366675E3,1.6502493E3,4.4699707E1,8.8081836E2,5.581438E2,4.4085938E1,5.3809814E0,7.273513E2,1.0876355E2,3.712339E2,2.5815057E2,1.599292E1,2.335376E1,6.4102783E0,2.7212524E0,0E0,0E0,0E0,0E0,0E0,0E0,0E0,0E0,0E0,0E0,0E0,0E0,0E0,0E0,0E0,0E0],"parents":[2147483647,0,0,1,1,2,2,3,3,4,4,5,5,6,6,7,7,8,8,9,9,10,10,11,11,12,12,13,13,14,14],"right_children":[2,4,6,8,10,12,14,16,18,20,22,24,26,28,30,-1,-1,-1,-1,-1,-1,-1,-1,-1,-1,-1,-1,-1,-1,-1,-1],"split_conditions":[1E0,1E0,1E0,1E0,1E0,1E0,1E0,1E0,1E0,1E0,1E0,1E0,1E0,2.281E1,3.932E1,-2.897186E-2,2.0150734E-2,1.7906694E-2,-3.3059642E-3,2.9683702E-3,-2.1962143E-2,2.2387689E-2,-4.119277E-3,3.8422745E-2,4.5463037E-2,3.2697827E-2,-5.6183722E-2,2.914842E-2,4.5594458E-2,5.1076688E-2,3.6663778E-2],"split_indices":[3,10,4,95,77,99,77,92,99,18,81,95,82,2,2,0,0,0,0,0,0,0,0,0,0,0,0,0,0,0,0],"split_type":[0,0,0,0,0,0,0,0,0,0,0,0,0,0,0,0,0,0,0,0,0,0,0,0,0,0,0,0,0,0,0],"sum_hessian":[3.528905E4,2.7791809E4,7.4972407E3,1.6423291E4,1.1368518E4,6.1205474E3,1.3766931E3,1.399143E4,2.4318613E3,6.373352E3,4.9951655E3,3.5676506E3,2.552897E3,5.5968256E2,8.170106E2,1.3192897E4,7.985319E2,1.1160332E3,1.315828E3,3.9873193E3,2.3860325E3,3.7825198E3,1.2126456E3,2.2132952E3,1.3543556E3,2.5463508E3,6.5460033E0,7.56788E1,4.8400375E2,7.7032086E2,4.6689716E1],"tree_param":{"num_deleted":"0","num_feature":"110","num_nodes":"31","size_leaf_vector":"1"}},{"base_weights":[-8.884287E-3,-2.1447574E-1,7.618109E-1,-3.4091026E-1,2.3843156E-1,6.9995975E-1,8.595677E-1,-5.335751E-1,-7.6032475E-2,8.622836E-2,4.3858764E-1,5.8471835E-1,7.63494E-1,8.909799E-1,6.694615E-1,-2.8796805E-2,2.9044658E-2,-1.6871529E-2,9.790753E-3,-2.0820748E-3,2.2668403E-2,2.9786069E-2,7.813876E-3,2.9558972E-2,-5.310393E-2,3.851128E-2,-1.5328392E-2,4.2559884E-2,5.099776E-2,3.619054E-2,1.7910188E-2],"categories":[],"categories_nodes":[],"categories_segments":[],"categories_sizes":[],"default_left":[0,0,0,0,0,0,0,0,0,0,0,0,0,0,0,0,0,0,0,0,0,0,0,0,0,0,0,0,0,0,0],"id":25,"left_children":[1,3,5,7,9,11,13,15,17,19,21,23,25,27,29,-1,-1,-1,-1,-1,-1,-1,-1,-1,-1,-1,-1,-1,-1,-1,-1],"loss_changes":[5.5399785E3,1.5806017E3,4.3916992E1,1.1011333E3,1.8348535E2,3.2611572E1,1.6415771E1,5.900596E2,6.4581305E2,1.607274E2,1.1532962E2,1.7746094E1,2.117688E1,1.1661133E1,6.6427765E0,0E0,0E0,0E0,0E0,0E0,0E0,0E0,0E0,0E0,0E0,0E0,0E0,0E0,0E0,0E0,0E0],"parents":[2147483647,0,0,1,1,2,2,3,3,4,4,5,5,6,6,7,7,8,8,9,9,10,10,11,11,12,12,13,13,14,14],"right_children":[2,4,6,8,10,12,14,16,18,20,22,24,26,28,30,-1,-1,-1,-1,-1,-1,-1,-1,-1,-1,-1,-1,-1,-1,-1,-1],"split_conditions":[1E0,1E0,1E0,1E0,1E0,1E0,3.766E1,1E0,1E0,1E0,1E0,1E0,1E0,1E0,4.699E1,-2.8796805E-2,2.9044658E-2,-1.6871529E-2,9.790753E-3,-2.0820748E-3,2.2668403E-2,2.9786069E-2,7.813876E-3,2.9558972E-2,-5.310393E-2,3.851128E-2,-1.5328392E-2,4.2559884E-2,5.099776E-2,3.619054E-2,1.7910188E-2],"split_indices":[3,14,95,21,77,77,2,93,77,7,99,82,85,80,2,0,0,0,0,0,0,0,0,0,0,0,0,0,0,0,0],"split_type":[0,0,0,0,0,0,0,0,0,0,0,0,0,0,0,0,0,0,0,0,0,0,0,0,0,0,0,0,0,0,0],"sum_hessian":[3.496191E4,2.7600021E4,7.3618887E3,2.1576836E4,6.0231855E3,4.514013E3,2.8478752E3,1.2490542E4,9.086294E3,3.422256E3,2.6009297E3,1.6078406E3,2.9061729E3,2.4408716E3,4.070039E2,1.2033627E4,4.5691498E2,4.6320513E3,4.4542427E3,2.5388833E3,8.833726E2,1.6701915E3,9.3073816E2,1.6021954E3,5.6450896E0,2.8882834E3,1.788944E1,1.8712782E3,5.695933E2,3.4537228E2,6.163162E1],"tree_param":{"num_deleted":"0","num_feature":"110","num_nodes":"31","size_leaf_vector":"1"}},{"base_weights":[-8.537668E-3,-2.0533027E-1,7.374019E-1,-4.7665742E-1,-5.3495856E-4,6.9988745E-1,9.049623E-1,-5.5672675E-1,1.7300168E-1,1.10269874E-1,-3.1276867E-1,7.733362E-1,5.977904E-1,8.213644E-1,9.616693E-1,-3.0767566E-2,1.0527848E-2,2.6055744E-2,-7.966084E-3,1.4254928E-2,-4.568597E-3,-1.9178705E-2,1.07485065E-2,3.3459034E-2,4.1027453E-2,3.0531038E-2,-5.884386E-3,4.2507153E-2,1.8648302E-2,5.020986E-2,4.2397235E-2],"categories":[],"categories_nodes":[],"categories_segments":[],"categories_sizes":[],"default_left":[0,0,0,0,0,0,0,0,0,0,0,0,0,0,0,0,0,0,0,0,0,0,0,0,0,0,0,0,0,0,0],"id":26,"left_children":[1,3,5,7,9,11,13,15,17,19,21,23,25,27,29,-1,-1,-1,-1,-1,-1,-1,-1,-1,-1,-1,-1,-1,-1,-1,-1],"loss_changes":[5.0843237E3,1.5228206E3,4.4814453E1,6.132771E2,5.403861E2,4.3870117E1,5.463867E0,4.7219946E2,1.4980287E2,4.0643097E2,1.529552E2,1.6342041E1,2.2818848E1,6.651642E0,2.9216309E0,0E0,0E0,0E0,0E0,0E0,0E0,0E0,0E0,0E0,0E0,0E0,0E0,0E0,0E0,0E0,0E0],"parents":[2147483647,0,0,1,1,2,2,3,3,4,4,5,5,6,6,7,7,8,8,9,9,10,10,11,11,12,12,13,13,14,14],"right_children":[2,4,6,8,10,12,14,16,18,20,22,24,26,28,30,-1,-1,-1,-1,-1,-1,-1,-1,-1,-1,-1,-1,-1,-1,-1,-1],"split_conditions":[1E0,1E0,1E0,1E0,1E0,1E0,1E0,1E0,1E0,1E0,1E0,1E0,1E0,1E0,1E0,-3.0767566E-2,1.0527848E-2,2.6055744E-2,-7.966084E-3,1.4254928E-2,-4.568597E-3,-1.9178705E-2,1.07485065E-2,3.3459034E-2,4.1027453E-2,3.0531038E-2,-5.884386E-3,4.2507153E-2,1.8648302E-2,5.020986E-2,4.2397235E-2],"split_indices":[3,17,4,78,81,99,77,93,99,99,92,77,65,109,79,0,0,0,0,0,0,0,0,0,0,0,0,0,0,0,0],"split_type":[0,0,0,0,0,0,0,0,0,0,0,0,0,0,0,0,0,0,0,0,0,0,0,0,0,0,0,0,0,0,0],"sum_hessian":[3.4633414E4,2.7404363E4,7.229051E3,1.1786911E4,1.5617452E4,5.910867E3,1.3181837E3,1.0493722E4,1.29319E3,1.1527312E4,4.0901406E3,3.4339236E3,2.4769438E3,5.3902814E2,7.791556E2,9.749041E3,7.4468036E2,6.313129E2,6.6187695E2,6.173935E3,5.353376E3,3.606534E3,4.8360666E2,1.0757985E3,2.358125E3,2.4334526E3,4.3491203E1,5.0567728E2,3.3350826E1,5.613908E2,2.1776482E2],"tree_param":{"num_deleted":"0","num_feature":"110","num_nodes":"31","size_leaf_vector":"1"}},{"base_weights":[-8.213059E-3,-1.9660982E-1,7.1377337E-1,-3.8877338E-1,7.4384056E-2,6.512628E-1,8.1326073E-1,-4.4471762E-1,5.228187E-1,1.897902E-1,-2.8531298E-1,7.245008E-1,5.4990256E-1,8.452288E-1,6.2137634E-1,-2.5298474E-2,1.5216134E-2,3.124986E-2,8.482394E-3,4.145915E-4,2.0825088E-2,-2.30501E-2,-2.9025734E-3,3.9544336E-2,3.236298E-2,2.1632997E-2,3.1326126E-2,4.0237803E-2,4.8873868E-2,-2.8734782E-3,3.2289848E-2],"categories":[],"categories_nodes":[],"categories_segments":[],"categories_sizes":[],"default_left":[0,0,0,0,0,0,0,0,0,0,0,0,0,0,0,0,0,0,0,0,0,0,0,0,0,0,0,0,0,0,0],"id":27,"left_children":[1,3,5,7,9,11,13,15,17,19,21,23,25,27,29,-1,-1,-1,-1,-1,-1,-1,-1,-1,-1,-1,-1,-1,-1,-1,-1],"loss_changes":[4.666586E3,1.4169037E3,4.3624023E1,8.121133E2,4.6869644E2,3.200647E1,1.6255249E1,6.8834595E2,3.3128174E1,3.5172015E2,1.0948245E2,1.2466431E1,1.6214783E1,1.1749756E1,6.576126E0,0E0,0E0,0E0,0E0,0E0,0E0,0E0,0E0,0E0,0E0,0E0,0E0,0E0,0E0,0E0,0E0],"parents":[2147483647,0,0,1,1,2,2,3,3,4,4,5,5,6,6,7,7,8,8,9,9,10,10,11,11,12,12,13,13,14,14],"right_children":[2,4,6,8,10,12,14,16,18,20,22,24,26,28,30,-1,-1,-1,-1,-1,-1,-1,-1,-1,-1,-1,-1,-1,-1,-1,-1],"split_conditions":[1E0,1E0,1E0,1E0,1E0,1E0,3.766E1,1E0,1E0,1E0,1E0,1E0,1E0,1E0,3.788E1,-2.5298474E-2,1.5216134E-2,3.124986E-2,8.482394E-3,4.145915E-4,2.0825088E-2,-2.30501E-2,-2.9025734E-3,3.9544336E-2,3.236298E-2,2.1632997E-2,3.1326126E-2,4.0237803E-2,4.8873868E-2,-2.8734782E-3,3.2289848E-2],"split_indices":[3,10,95,4,81,99,2,11,81,77,77,18,77,80,2,0,0,0,0,0,0,0,0,0,0,0,0,0,0,0,0],"split_type":[0,0,0,0,0,0,0,0,0,0,0,0,0,0,0,0,0,0,0,0,0,0,0,0,0,0,0,0,0,0,0],"sum_hessian":[3.430608E4,2.7207277E4,7.0988003E3,1.5918751E4,1.1288526E4,4.3642026E3,2.734598E3,1.499879E4,9.199607E2,8.546815E3,2.7417107E3,2.53E3,1.8342025E3,2.3411553E3,3.9344275E2,1.3865297E4,1.133493E3,7.1292834E2,2.0703238E2,4.7473047E3,3.799511E3,1.545727E3,1.1959836E3,1.3556394E3,1.1743606E3,7.275554E2,1.1066471E3,1.7979915E3,5.431638E2,1.3615125E1,3.798276E2],"tree_param":{"num_deleted":"0","num_feature":"110","num_nodes":"31","size_leaf_vector":"1"}},{"base_weights":[-7.882562E-3,-1.8813457E-1,6.9081146E-1,-4.5030907E-1,5.4430454E-3,6.529435E-1,8.615587E-1,-5.4324496E-1,9.241227E-2,-8.6767666E-2,3.528392E-1,5.3437805E-1,7.165037E-1,6.9233537E-1,8.914559E-1,-1.3009335E-2,-3.4838434E-2,8.039674E-3,-4.079274E-2,-8.102869E-3,1.9599779E-2,4.1624676E-3,2.2848865E-2,2.7761599E-2,4.1203494E-3,3.8769223E-2,3.1219885E-2,3.7130285E-2,6.8593905E-3,3.4957256E-2,4.606391E-2],"categories":[],"categories_nodes":[],"categories_segments":[],"categories_sizes":[],"default_left":[0,0,0,0,0,0,0,0,0,0,0,0,0,0,0,0,0,0,0,0,0,0,0,0,0,0,0,0,0,0,0],"id":28,"left_children":[1,3,5,7,9,11,13,15,17,19,21,23,25,27,29,-1,-1,-1,-1,-1,-1,-1,-1,-1,-1,-1,-1,-1,-1,-1,-1],"loss_changes":[4.2820874E3,1.3716998E3,4.4522705E1,5.790786E2,4.9812137E2,4.2656982E1,5.770508E0,4.2576147E2,1.0442806E2,4.4300604E2,9.153299E1,1.8777527E1,1.966394E1,5.3135147E0,5.489868E0,0E0,0E0,0E0,0E0,0E0,0E0,0E0,0E0,0E0,0E0,0E0,0E0,0E0,0E0,0E0,0E0],"parents":[2147483647,0,0,1,1,2,2,3,3,4,4,5,5,6,6,7,7,8,8,9,9,10,10,11,11,12,12,13,13,14,14],"right_children":[2,4,6,8,10,12,14,16,18,20,22,24,26,28,30,-1,-1,-1,-1,-1,-1,-1,-1,-1,-1,-1,-1,-1,-1,-1,-1],"split_conditions":[1E0,1E0,1E0,1E0,1E0,1E0,6.577E1,1E0,1E0,1E0,1E0,1.1567E2,1E0,2.618E1,1E0,-1.3009335E-2,-3.4838434E-2,8.039674E-3,-4.079274E-2,-8.102869E-3,1.9599779E-2,4.1624676E-3,2.2848865E-2,2.7761599E-2,4.1203494E-3,3.8769223E-2,3.1219885E-2,3.7130285E-2,6.8593905E-3,3.4957256E-2,4.606391E-2],"split_indices":[3,17,4,95,78,77,1,99,87,93,106,1,99,2,17,0,0,0,0,0,0,0,0,0,0,0,0,0,0,0,0],"split_type":[0,0,0,0,0,0,0,0,0,0,0,0,0,0,0,0,0,0,0,0,0,0,0,0,0,0,0,0,0,0,0],"sum_hessian":[3.3998715E4,2.7026926E4,6.9717886E3,1.1478938E4,1.5547986E4,5.7102134E3,1.2615748E3,9.800667E3,1.678272E3,1.2287277E4,3.2607095E3,1.9960951E3,3.7141184E3,1.9304816E2,1.0685267E3,3.4473447E3,6.3533223E3,1.561531E3,1.16740875E2,1.0618143E4,1.6691342E3,9.090876E2,2.351622E3,1.9078391E3,8.825608E1,2.261187E3,1.4529315E3,1.7670895E2,1.6339203E1,1.4673593E2,9.217908E2],"tree_param":{"num_deleted":"0","num_feature":"110","num_nodes":"31","size_leaf_vector":"1"}},{"base_weights":[-7.5798244E-3,-1.80088E-1,6.6852814E-1,-3.891925E-1,5.4903787E-2,6.054057E-1,7.697096E-1,-4.482543E-1,5.217688E-1,-4.63814E-2,4.615077E-1,4.90732E-1,6.700998E-1,8.01941E-1,5.782132E-1,-8.906779E-3,-3.1806584E-2,3.0114794E-2,2.0187295E-3,-1.2039489E-2,8.7271575E-3,1.41935125E-2,3.37225E-2,2.0721247E-2,3.2466903E-2,3.38585E-2,-2.094364E-2,3.8033083E-2,4.6894852E-2,2.9745877E-2,-2.137789E-2],"categories":[],"categories_nodes":[],"categories_segments":[],"categories_sizes":[],"default_left":[0,0,0,0,0,0,0,0,0,0,0,0,0,0,0,0,0,0,0,0,0,0,0,0,0,0,0,0,0,0,0],"id":29,"left_children":[1,3,5,7,9,11,13,15,17,19,21,23,25,27,29,-1,-1,-1,-1,-1,-1,-1,-1,-1,-1,-1,-1,-1,-1,-1,-1],"loss_changes":[3.9294634E3,1.3189696E3,4.3275146E1,7.6441724E2,5.205512E2,3.0994629E1,1.575354E1,6.768352E2,3.351779E1,4.3468097E2,9.5157776E1,1.820694E1,2.1045654E1,1.1893311E1,6.6740646E0,0E0,0E0,0E0,0E0,0E0,0E0,0E0,0E0,0E0,0E0,0E0,0E0,0E0,0E0,0E0,0E0],"parents":[2147483647,0,0,1,1,2,2,3,3,4,4,5,5,6,6,7,7,8,8,9,9,10,10,11,11,12,12,13,13,14,14],"right_children":[2,4,6,8,10,12,14,16,18,20,22,24,26,28,30,-1,-1,-1,-1,-1,-1,-1,-1,-1,-1,-1,-1,-1,-1,-1,-1],"split_conditions":[1E0,1E0,1E0,1E0,1E0,1E0,3.766E1,1E0,1.0433E2,1E0,1E0,1E0,1E0,1E0,1E0,-8.906779E-3,-3.1806584E-2,3.0114794E-2,2.0187295E-3,-1.2039489E-2,8.7271575E-3,1.41935125E-2,3.37225E-2,2.0721247E-2,3.2466903E-2,3.38585E-2,-2.094364E-2,3.8033083E-2,4.6894852E-2,2.9745877E-2,-2.137789E-2],"split_indices":[3,21,95,4,78,77,2,99,1,77,77,78,85,80,68,0,0,0,0,0,0,0,0,0,0,0,0,0,0,0,0],"split_type":[0,0,0,0,0,0,0,0,0,0,0,0,0,0,0,0,0,0,0,0,0,0,0,0,0,0,0,0,0,0,0],"sum_hessian":[3.3688473E4,2.6840805E4,6.847667E3,1.4202357E4,1.2638446E4,4.2212246E3,2.6264426E3,1.3338096E4,8.642617E2,1.0118748E4,2.519698E3,1.525601E3,2.6956238E3,2.2453352E3,3.811073E2,5.4723013E3,7.865795E3,7.4019214E2,1.2406963E2,5.382333E3,4.7364155E3,1.3749999E3,1.1446982E3,1.0324779E3,4.9312308E2,2.6786108E3,1.7012867E1,1.7274406E3,5.1789465E2,3.7528293E2,5.824391E0],"tree_param":{"num_deleted":"0","num_feature":"110","num_nodes":"31","size_leaf_vector":"1"}},{"base_weights":[-7.2783176E-3,-1.7225266E-1,6.468292E-1,-4.2475495E-1,1.01838065E-2,6.086065E-1,8.208263E-1,-4.7022623E-1,6.607025E-1,-4.983021E-2,4.9373478E-1,6.8374056E-1,5.060225E-1,7.320536E-1,8.821666E-1,-3.1222342E-2,-9.44339E-3,2.4293251E-2,7.143747E-2,-5.720353E-3,1.9565409E-2,2.5701473E-2,-2.8117886E-2,2.892614E-2,3.663003E-2,2.5957694E-2,-1.0460011E-2,2.1269962E-2,3.8997315E-2,4.7194563E-2,3.9458778E-2],"categories":[],"categories_nodes":[],"categories_segments":[],"categories_sizes":[],"default_left":[0,0,0,0,0,0,0,0,0,0,0,0,0,0,0,0,0,0,0,0,0,0,0,0,0,0,0,0,0,0,0],"id":30,"left_children":[1,3,5,7,9,11,13,15,17,19,21,23,25,27,29,-1,-1,-1,-1,-1,-1,-1,-1,-1,-1,-1,-1,-1,-1,-1,-1],"loss_changes":[3.6046643E3,1.2288503E3,4.4246094E1,5.525852E2,4.4947333E2,4.220056E1,5.937134E0,4.6590625E2,5.977449E1,3.9255972E2,3.6940735E1,1.5942505E1,2.2062988E1,7.0095825E0,3.3306274E0,0E0,0E0,0E0,0E0,0E0,0E0,0E0,0E0,0E0,0E0,0E0,0E0,0E0,0E0,0E0,0E0],"parents":[2147483647,0,0,1,1,2,2,3,3,4,4,5,5,6,6,7,7,8,8,9,9,10,10,11,11,12,12,13,13,14,14],"right_children":[2,4,6,8,10,12,14,16,18,20,22,24,26,28,30,-1,-1,-1,-1,-1,-1,-1,-1,-1,-1,-1,-1,-1,-1,-1,-1],"split_conditions":[1E0,1E0,1E0,1E0,1E0,1E0,1E0,1E0,1E0,1E0,1E0,1E0,1E0,2.281E1,9.253E1,-3.1222342E-2,-9.44339E-3,2.4293251E-2,7.143747E-2,-5.720353E-3,1.9565409E-2,2.5701473E-2,-2.8117886E-2,2.892614E-2,3.663003E-2,2.5957694E-2,-1.0460011E-2,2.1269962E-2,3.8997315E-2,4.7194563E-2,3.9458778E-2],"split_indices":[3,17,4,4,4,99,77,21,12,93,72,77,65,2,1,0,0,0,0,0,0,0,0,0,0,0,0,0,0,0,0],"split_type":[0,0,0,0,0,0,0,0,0,0,0,0,0,0,0,0,0,0,0,0,0,0,0,0,0,0,0,0,0,0,0],"sum_hessian":[3.3402027E4,2.667499E4,6.727039E3,1.1188354E4,1.5486637E4,5.519126E3,1.207913E3,1.0739047E4,4.493065E2,1.3777584E4,1.7090533E3,3.1825293E3,2.3365967E3,4.988721E2,7.0904083E2,6.9360054E3,3.8030413E3,3.673222E2,8.19843E1,1.2018914E4,1.7586702E3,1.6773337E3,3.1719664E1,1.01329315E3,2.169236E3,2.2947397E3,4.1856945E1,6.87232E1,4.301489E2,4.2066553E2,2.8837534E2],"tree_param":{"num_deleted":"0","num_feature":"110","num_nodes":"31","size_leaf_vector":"1"}},{"base_weights":[-6.987571E-3,-1.6488202E-1,6.257394E-1,-3.457386E-1,8.311609E-2,5.879236E-1,7.991911E-1,-4.3903214E-1,1.604356E-1,-8.5440345E-2,2.929708E-1,6.62355E-1,4.8695412E-1,7.100476E-1,8.611917E-1,-2.4773406E-2,2.1888675E-2,1.783648E-2,-4.8001777E-4,4.312353E-3,-1.899833E-2,2.2591863E-2,3.625707E-3,3.0309124E-2,3.777154E-2,2.4610357E-2,-6.07718E-2,3.7050907E-2,1.183768E-2,4.5418117E-2,3.6826152E-2],"categories":[],"categories_nodes":[],"categories_segments":[],"categories_sizes":[],"default_left":[0,0,0,0,0,0,0,0,0,0,0,0,0,0,0,0,0,0,0,0,0,0,0,0,0,0,0,0,0,0,0],"id":31,"left_children":[1,3,5,7,9,11,13,15,17,19,21,23,25,27,29,-1,-1,-1,-1,-1,-1,-1,-1,-1,-1,-1,-1,-1,-1,-1,-1],"loss_changes":[3.3069607E3,1.1881909E3,4.289087E1,7.234866E2,3.9522098E2,4.0494385E1,5.913086E0,6.4030444E2,7.960167E1,3.133758E2,1.742703E2,1.5873535E1,2.124237E1,7.006241E0,3.397705E0,0E0,0E0,0E0,0E0,0E0,0E0,0E0,0E0,0E0,0E0,0E0,0E0,0E0,0E0,0E0,0E0],"parents":[2147483647,0,0,1,1,2,2,3,3,4,4,5,5,6,6,7,7,8,8,9,9,10,10,11,11,12,12,13,13,14,14],"right_children":[2,4,6,8,10,12,14,16,18,20,22,24,26,28,30,-1,-1,-1,-1,-1,-1,-1,-1,-1,-1,-1,-1,-1,-1,-1,-1],"split_conditions":[1E0,1E0,1E0,1E0,1E0,1E0,1E0,1E0,1E0,1E0,1E0,1E0,1E0,1E0,1E0,-2.4773406E-2,2.1888675E-2,1.783648E-2,-4.8001777E-4,4.312353E-3,-1.899833E-2,2.2591863E-2,3.625707E-3,3.0309124E-2,3.777154E-2,2.4610357E-2,-6.07718E-2,3.7050907E-2,1.183768E-2,4.5418117E-2,3.6826152E-2],"split_indices":[3,10,4,95,77,99,77,92,99,18,99,95,82,109,79,0,0,0,0,0,0,0,0,0,0,0,0,0,0,0,0],"split_type":[0,0,0,0,0,0,0,0,0,0,0,0,0,0,0,0,0,0,0,0,0,0,0,0,0,0,0,0,0,0,0],"sum_hessian":[3.3099324E4,2.6489672E4,6.6096514E3,1.5318222E4,1.1171451E4,5.4301616E3,1.1794895E3,1.29344E4,2.383821E3,6.1956577E3,4.9757935E3,3.1226707E3,2.3074912E3,4.8894434E2,6.905451E2,1.2152626E4,7.817744E2,1.1059664E3,1.2778546E3,3.9144973E3,2.2811604E3,2.8912432E3,2.08455E3,1.9520771E3,1.1705935E3,2.3011016E3,6.389561E0,4.583838E2,3.0560558E1,4.9642697E2,1.9411812E2],"tree_param":{"num_deleted":"0","num_feature":"110","num_nodes":"31","size_leaf_vector":"1"}},{"base_weights":[-6.7102886E-3,-1.5764403E-1,6.051705E-1,-2.7038568E-1,2.2614731E-1,4.9738857E-1,6.670077E-1,-3.4567147E-1,2.9477388E-1,1.4040099E-1,4.8598E-1,5.378202E-1,2.389025E-1,7.431543E-1,5.750023E-1,-2.0398058E-2,1.3476538E-2,1.7562304E-2,-5.480907E-2,-9.276173E-4,1.6974619E-2,2.5299031E-2,-3.1928055E-2,3.0587753E-2,1.9801816E-2,4.4914003E-2,8.759845E-3,3.5214182E-2,4.4497676E-2,3.079001E-2,1.9711256E-2],"categories":[],"categories_nodes":[],"categories_segments":[],"categories_sizes":[],"default_left":[0,0,0,0,0,0,0,0,0,0,0,0,0,0,0,0,0,0,0,0,0,0,0,0,0,0,0,0,0,0,0],"id":32,"left_children":[1,3,5,7,9,11,13,15,17,19,21,23,25,27,29,-1,-1,-1,-1,-1,-1,-1,-1,-1,-1,-1,-1,-1,-1,-1,-1],"loss_changes":[3.0324658E3,1.139706E3,4.2970215E1,8.663273E2,1.3318417E2,2.4666626E1,2.8475098E1,6.885737E2,1.884135E2,1.4236044E2,3.3691376E1,2.1255676E1,1.3398134E1,1.2234131E1,1.3568359E1,0E0,0E0,0E0,0E0,0E0,0E0,0E0,0E0,0E0,0E0,0E0,0E0,0E0,0E0,0E0,0E0],"parents":[2147483647,0,0,1,1,2,2,3,3,4,4,5,5,6,6,7,7,8,8,9,9,10,10,11,11,12,12,13,13,14,14],"right_children":[2,4,6,8,10,12,14,16,18,20,22,24,26,28,30,-1,-1,-1,-1,-1,-1,-1,-1,-1,-1,-1,-1,-1,-1,-1,-1],"split_conditions":[1E0,1E0,1E0,1E0,1E0,1E0,1E0,1E0,1E0,1E0,1E0,1E0,1.51E0,1E0,1E0,-2.0398058E-2,1.3476538E-2,1.7562304E-2,-5.480907E-2,-9.276173E-4,1.6974619E-2,2.5299031E-2,-3.1928055E-2,3.0587753E-2,1.9801816E-2,4.4914003E-2,8.759845E-3,3.5214182E-2,4.4497676E-2,3.079001E-2,1.9711256E-2],"split_indices":[3,14,77,78,7,81,18,93,83,77,72,79,0,80,6,0,0,0,0,0,0,0,0,0,0,0,0,0,0,0,0],"split_type":[0,0,0,0,0,0,0,0,0,0,0,0,0,0,0,0,0,0,0,0,0,0,0,0,0,0,0,0,0,0,0],"sum_hessian":[3.2833402E4,2.6337441E4,6.4959624E3,2.035755E4,5.9798906E3,2.3714988E3,4.1244634E3,1.7964816E4,2.3927332E3,4.4972964E3,1.482594E3,2.049795E3,3.2170383E2,2.2528538E3,1.8716097E3,1.6313409E4,1.6514081E3,2.3000974E3,9.2635506E1,2.5012334E3,1.996063E3,1.4572264E3,2.536757E1,1.3450752E3,7.047198E2,2.718879E1,2.9451505E2,1.7857944E3,4.6705927E2,1.5250332E3,3.4657654E2],"tree_param":{"num_deleted":"0","num_feature":"110","num_nodes":"31","size_leaf_vector":"1"}},{"base_weights":[-6.4365384E-3,-1.5074293E-1,5.851521E-1,7.1342535E-2,-3.3602062E-1,5.2070194E-1,6.899042E-1,-1.708043E-1,2.6855645E-1,-4.162048E-1,3.034612E-1,5.959505E-1,4.1917625E-1,7.241841E-1,4.8873138E-1,-1.5333655E-2,1.5176572E-2,1.9516692E-2,-4.2968527E-3,-2.4592876E-2,1.4478087E-2,1.1005219E-2,4.341928E-2,3.5958413E-2,2.736254E-2,2.3145271E-2,9.345121E-3,3.4066983E-2,4.337873E-2,2.7454069E-2,7.5456174E-3],"categories":[],"categories_nodes":[],"categories_segments":[],"categories_sizes":[],"default_left":[0,0,0,0,0,0,0,0,0,0,0,0,0,0,0,0,0,0,0,0,0,0,0,0,0,0,0,0,0,0,0],"id":33,"left_children":[1,3,5,7,9,11,13,15,17,19,21,23,25,27,29,-1,-1,-1,-1,-1,-1,-1,-1,-1,-1,-1,-1,-1,-1,-1,-1],"loss_changes":[2.7804448E3,1.0773708E3,4.2759277E1,5.687679E2,7.3206213E2,2.9988403E1,1.640149E1,3.4464548E2,2.833958E2,6.773989E2,7.472978E1,1.3233093E1,1.7061005E1,1.2149536E1,7.1916504E0,0E0,0E0,0E0,0E0,0E0,0E0,0E0,0E0,0E0,0E0,0E0,0E0,0E0,0E0,0E0,0E0],"parents":[2147483647,0,0,1,1,2,2,3,3,4,4,5,5,6,6,7,7,8,8,9,9,10,10,11,11,12,12,13,13,14,14],"right_children":[2,4,6,8,10,12,14,16,18,20,22,24,26,28,30,-1,-1,-1,-1,-1,-1,-1,-1,-1,-1,-1,-1,-1,-1,-1,-1],"split_conditions":[1E0,1E0,1E0,1E0,1E0,1E0,3.766E1,1E0,1E0,1E0,3.255E1,1E0,3.347E1,1E0,4.699E1,-1.5333655E-2,1.5176572E-2,1.9516692E-2,-4.2968527E-3,-2.4592876E-2,1.4478087E-2,1.1005219E-2,4.341928E-2,3.5958413E-2,2.736254E-2,2.3145271E-2,9.345121E-3,3.4066983E-2,4.337873E-2,2.7454069E-2,7.5456174E-3],"split_indices":[3,99,95,77,93,99,2,7,81,92,2,98,2,80,2,0,0,0,0,0,0,0,0,0,0,0,0,0,0,0,0],"split_type":[0,0,0,0,0,0,0,0,0,0,0,0,0,0,0,0,0,0,0,0,0,0,0,0,0,0,0,0,0,0,0],"sum_hessian":[3.2567303E4,2.618157E4,6.385733E3,1.1908231E4,1.4273339E4,3.9570647E3,2.428668E3,5.345255E3,6.5629766E3,1.2683333E4,1.5900054E3,2.26984E3,1.6872247E3,2.0728535E3,3.5581454E2,4.155349E3,1.1899055E3,4.884818E3,1.6781587E3,1.1455677E4,1.227657E3,1.3867714E3,2.0323396E2,6.390864E2,1.6307535E3,1.4190698E3,2.6815494E2,1.6004095E3,4.7244394E2,3.0135355E2,5.4460995E1],"tree_param":{"num_deleted":"0","num_feature":"110","num_nodes":"31","size_leaf_vector":"1"}},{"base_weights":[-6.1811865E-3,-1.440549E-1,5.655969E-1,-3.364963E-1,6.477318E-2,5.2699304E-1,7.449605E-1,-3.957704E-1,4.8880178E-1,-1.07789196E-1,2.6033032E-1,4.073685E-1,5.9302646E-1,5.633472E-1,7.778809E-1,-2.2088781E-2,2.4109168E-2,1.5557296E-2,3.9403565E-2,4.7189137E-3,-2.1867443E-2,2.1104714E-2,3.383675E-3,2.1445386E-2,-2.543699E-3,3.3429153E-2,2.5467789E-2,3.0893264E-2,-1.0191787E-3,2.8429573E-2,4.054981E-2],"categories":[],"categories_nodes":[],"categories_segments":[],"categories_sizes":[],"default_left":[0,0,0,0,0,0,0,0,0,0,0,0,0,0,0,0,0,0,0,0,0,0,0,0,0,0,0,0,0,0,0],"id":34,"left_children":[1,3,5,7,9,11,13,15,17,19,21,23,25,27,29,-1,-1,-1,-1,-1,-1,-1,-1,-1,-1,-1,-1,-1,-1,-1,-1],"loss_changes":[2.5483928E3,1.0467318E3,4.3094482E1,6.632838E2,4.2157928E2,4.060974E1,6.197693E0,5.110381E2,4.807007E1,4.4222922E2,1.8247684E2,1.8208466E1,2.0711304E1,5.54813E0,6.032654E0,0E0,0E0,0E0,0E0,0E0,0E0,0E0,0E0,0E0,0E0,0E0,0E0,0E0,0E0,0E0,0E0],"parents":[2147483647,0,0,1,1,2,2,3,3,4,4,5,5,6,6,7,7,8,8,9,9,10,10,11,11,12,12,13,13,14,14],"right_children":[2,4,6,8,10,12,14,16,18,20,22,24,26,28,30,-1,-1,-1,-1,-1,-1,-1,-1,-1,-1,-1,-1,-1,-1,-1,-1],"split_conditions":[1E0,1E0,1E0,1E0,1E0,1E0,6.577E1,1E0,1E0,1E0,1E0,1.1567E2,1E0,2.618E1,1E0,-2.2088781E-2,2.4109168E-2,1.5557296E-2,3.9403565E-2,4.7189137E-3,-2.1867443E-2,2.1104714E-2,3.383675E-3,2.1445386E-2,-2.543699E-3,3.3429153E-2,2.5467789E-2,3.0893264E-2,-1.0191787E-3,2.8429573E-2,4.054981E-2],"split_indices":[3,21,4,7,77,77,1,93,98,18,99,1,18,2,17,0,0,0,0,0,0,0,0,0,0,0,0,0,0,0,0],"split_type":[0,0,0,0,0,0,0,0,0,0,0,0,0,0,0,0,0,0,0,0,0,0,0,0,0,0,0,0,0,0,0],"sum_hessian":[3.2324371E4,2.6044879E4,6.2794927E3,1.3553919E4,1.2490959E4,5.170583E3,1.1089095E3,1.2646173E4,9.0774585E2,6.6358447E3,5.8551143E3,1.8415836E3,3.3289995E3,1.7294264E2,9.3596686E2,1.2016975E4,6.2919885E2,5.708882E2,3.3685767E2,4.113279E3,2.5225662E3,3.1820884E3,2.6730256E3,1.7589691E3,8.261448E1,1.7456486E3,1.583351E3,1.581167E2,1.482593E1,1.3034628E2,8.056206E2],"tree_param":{"num_deleted":"0","num_feature":"110","num_nodes":"31","size_leaf_vector":"1"}},{"base_weights":[-5.930914E-3,-1.3764906E-1,5.465642E-1,-3.7481043E-1,2.7259866E-2,4.820522E-1,6.522675E-1,-4.533025E-1,2.0968793E-1,-2.7911935E-2,4.6816444E-1,5.575551E-1,3.8105702E-1,6.8667954E-1,4.5262545E-1,-2.4652539E-2,3.5251573E-2,2.0929754E-2,-1.3275461E-2,3.2255978E-3,-1.4057298E-2,2.422839E-2,-4.2022076E-2,3.151885E-2,2.3693351E-2,2.120698E-2,7.701216E-3,3.2161597E-2,4.1672047E-2,-1.3763361E-2,2.3989579E-2],"categories":[],"categories_nodes":[],"categories_segments":[],"categories_sizes":[],"default_left":[0,0,0,0,0,0,0,0,0,0,0,0,0,0,0,0,0,0,0,0,0,0,0,0,0,0,0,0,0,0,0],"id":35,"left_children":[1,3,5,7,9,11,13,15,17,19,21,23,25,27,29,-1,-1,-1,-1,-1,-1,-1,-1,-1,-1,-1,-1,-1,-1,-1,-1],"loss_changes":[2.335226E3,1.0134065E3,4.1810425E1,4.8767444E2,3.718234E2,2.9069336E1,1.5754517E1,4.3174658E2,1.25084625E2,3.1799258E2,3.68981E1,1.3079285E1,1.603299E1,1.2170166E1,6.9886093E0,0E0,0E0,0E0,0E0,0E0,0E0,0E0,0E0,0E0,0E0,0E0,0E0,0E0,0E0,0E0,0E0],"parents":[2147483647,0,0,1,1,2,2,3,3,4,4,5,5,6,6,7,7,8,8,9,9,10,10,11,11,12,12,13,13,14,14],"right_children":[2,4,6,8,10,12,14,16,18,20,22,24,26,28,30,-1,-1,-1,-1,-1,-1,-1,-1,-1,-1,-1,-1,-1,-1,-1,-1],"split_conditions":[1E0,1E0,1E0,1E0,1E0,1E0,3.766E1,1E0,1E0,1E0,1E0,1E0,3.347E1,1E0,3.788E1,-2.4652539E-2,3.5251573E-2,2.0929754E-2,-1.3275461E-2,3.2255978E-3,-1.4057298E-2,2.422839E-2,-4.2022076E-2,3.151885E-2,2.3693351E-2,2.120698E-2,7.701216E-3,3.2161597E-2,4.1672047E-2,-1.3763361E-2,2.3989579E-2],"split_indices":[3,17,95,78,4,99,2,80,8,81,42,18,2,80,2,0,0,0,0,0,0,0,0,0,0,0,0,0,0,0,0],"split_type":[0,0,0,0,0,0,0,0,0,0,0,0,0,0,0,0,0,0,0,0,0,0,0,0,0,0,0,0,0,0,0],"sum_hessian":[3.208687E4,2.591042E4,6.1764487E3,1.0626624E4,1.5283797E4,3.8390132E3,2.3374355E3,9.368726E3,1.2578987E3,1.3584821E4,1.6989753E3,2.1941619E3,1.6448511E3,1.9916907E3,3.4574484E2,9.058458E3,3.10267E2,8.7385284E2,3.8404584E2,9.952983E3,3.6318374E3,1.6785643E3,2.0411049E1,1.1697556E3,1.0244064E3,1.3817725E3,2.6307864E2,1.5409011E3,4.5078952E2,1.2110892E1,3.3363394E2],"tree_param":{"num_deleted":"0","num_feature":"110","num_nodes":"31","size_leaf_vector":"1"}},{"base_weights":[-5.698781E-3,-1.3164619E-1,5.2798134E-1,-2.987526E-1,9.092456E-2,4.893928E-1,7.092293E-1,-3.6748752E-1,3.508239E-1,1.8505684E-1,-2.1420966E-1,3.6987177E-1,5.5599374E-1,6.1430985E-1,7.767559E-1,-2.179239E-2,2.2314953E-2,-4.3406836E-3,3.3468958E-2,1.914496E-3,1.8213367E-2,-1.8758027E-2,-6.610462E-4,2.0631567E-2,6.6149742E-3,3.1555153E-2,2.3677718E-2,1.4137688E-2,3.3369284E-2,4.2323243E-2,3.3634003E-2],"categories":[],"categories_nodes":[],"categories_segments":[],"categories_sizes":[],"default_left":[0,0,0,0,0,0,0,0,0,0,0,0,0,0,0,0,0,0,0,0,0,0,0,0,0,0,0,0,0,0,0],"id":36,"left_children":[1,3,5,7,9,11,13,15,17,19,21,23,25,27,29,-1,-1,-1,-1,-1,-1,-1,-1,-1,-1,-1,-1,-1,-1,-1,-1],"loss_changes":[2.13972E3,9.5794775E2,4.2164795E1,6.569485E2,3.173002E2,3.971106E1,6.347107E0,7.402871E2,1.9637614E2,2.220274E2,8.425177E1,1.8203888E1,1.962793E1,7.683853E0,3.916626E0,0E0,0E0,0E0,0E0,0E0,0E0,0E0,0E0,0E0,0E0,0E0,0E0,0E0,0E0,0E0,0E0],"parents":[2147483647,0,0,1,1,2,2,3,3,4,4,5,5,6,6,7,7,8,8,9,9,10,10,11,11,12,12,13,13,14,14],"right_children":[2,4,6,8,10,12,14,16,18,20,22,24,26,28,30,-1,-1,-1,-1,-1,-1,-1,-1,-1,-1,-1,-1,-1,-1,-1,-1],"split_conditions":[1E0,1E0,1E0,1E0,1E0,1E0,1E0,1E0,1E0,1E0,1E0,1E0,1E0,2.281E1,9.253E1,-2.179239E-2,2.2314953E-2,-4.3406836E-3,3.3468958E-2,1.914496E-3,1.8213367E-2,-1.8758027E-2,-6.610462E-4,2.0631567E-2,6.6149742E-3,3.1555153E-2,2.3677718E-2,1.4137688E-2,3.3369284E-2,4.2323243E-2,3.3634003E-2],"split_indices":[3,10,4,91,81,77,77,92,77,77,77,81,18,2,1,0,0,0,0,0,0,0,0,0,0,0,0,0,0,0,0],"split_type":[0,0,0,0,0,0,0,0,0,0,0,0,0,0,0,0,0,0,0,0,0,0,0,0,0,0,0,0,0,0,0],"sum_hessian":[3.1831635E4,2.5754402E4,6.0772324E3,1.470987E4,1.1044532E4,5.013529E3,1.0637036E3,1.3302682E4,1.4071887E3,8.44094E3,2.6035913E3,1.7963605E3,3.2171682E3,4.463645E2,6.173391E2,1.2272244E4,1.030437E3,5.9310156E2,8.1408716E2,4.641189E3,3.799752E3,1.4453196E3,1.1582717E3,1.5217336E3,2.746268E2,1.6799423E3,1.537226E3,6.246746E1,3.8389706E2,3.6543884E2,2.5190028E2],"tree_param":{"num_deleted":"0","num_feature":"110","num_nodes":"31","size_leaf_vector":"1"}},{"base_weights":[-5.4700836E-3,-1.2574534E-1,5.099252E-1,-2.2252236E-1,2.4498239E-1,4.7193277E-1,6.8986243E-1,-2.935823E-1,3.4083417E-1,1.8765943E-1,6.392953E-1,5.4939336E-1,3.6924577E-1,7.419114E-1,5.6446695E-1,-2.5201065E-2,-6.0880925E-3,1.5130696E-2,6.1872672E-2,4.7424118E-4,1.6813798E-2,3.2946203E-2,-7.37357E-2,2.4569806E-2,3.2364335E-2,1.9158704E-2,-1.827622E-2,3.7842195E-2,-2.2066167E-2,1.7216196E-2,3.3058863E-2],"categories":[],"categories_nodes":[],"categories_segments":[],"categories_sizes":[],"default_left":[0,0,0,0,0,0,0,0,0,0,0,0,0,0,0,0,0,0,0,0,0,0,0,0,0,0,0,0,0,0,0],"id":37,"left_children":[1,3,5,7,9,11,13,15,17,19,21,23,25,27,29,-1,-1,-1,-1,-1,-1,-1,-1,-1,-1,-1,-1,-1,-1,-1,-1],"loss_changes":[1.9598075E3,9.197238E2,4.056836E1,8.138534E2,1.1982974E2,3.9108765E1,6.3734436E0,6.526294E2,7.766687E1,1.22720276E2,2.8903717E1,1.5664795E1,2.1919586E1,1.3271759E1,6.360359E0,0E0,0E0,0E0,0E0,0E0,0E0,0E0,0E0,0E0,0E0,0E0,0E0,0E0,0E0,0E0,0E0],"parents":[2147483647,0,0,1,1,2,2,3,3,4,4,5,5,6,6,7,7,8,8,9,9,10,10,11,11,12,12,13,13,14,14],"right_children":[2,4,6,8,10,12,14,16,18,20,22,24,26,28,30,-1,-1,-1,-1,-1,-1,-1,-1,-1,-1,-1,-1,-1,-1,-1,-1],"split_conditions":[1E0,1E0,1E0,1E0,1E0,1E0,1E0,1E0,1E0,1E0,1E0,1E0,1E0,1E0,1E0,-2.5201065E-2,-6.0880925E-3,1.5130696E-2,6.1872672E-2,4.7424118E-4,1.6813798E-2,3.2946203E-2,-7.37357E-2,2.4569806E-2,3.2364335E-2,1.9158704E-2,-1.827622E-2,3.7842195E-2,-2.2066167E-2,1.7216196E-2,3.3058863E-2],"split_indices":[3,95,4,11,80,99,18,17,43,77,101,95,65,39,77,0,0,0,0,0,0,0,0,0,0,0,0,0,0,0,0],"split_type":[0,0,0,0,0,0,0,0,0,0,0,0,0,0,0,0,0,0,0,0,0,0,0,0,0,0,0,0,0,0,0],"sum_hessian":[3.1613219E4,2.5632293E4,5.9809263E3,2.0326533E4,5.305761E3,4.941241E3,1.0396848E3,1.8050217E4,2.276316E3,4.633627E3,6.7213446E2,2.8141064E3,2.1271348E3,7.3124445E2,3.084404E2,8.1124595E3,9.937757E3,2.1845332E3,9.1782745E1,2.1077427E3,2.525884E3,6.6663306E2,5.5014415E0,1.7709315E3,1.0431749E3,2.0880325E3,3.9102245E1,7.22487E2,8.757461E0,9.553439E1,2.12906E2],"tree_param":{"num_deleted":"0","num_feature":"110","num_nodes":"31","size_leaf_vector":"1"}},{"base_weights":[-5.258398E-3,-1.2020499E-1,4.9227604E-1,8.3010726E-2,-2.9359034E-1,3.833761E-1,5.564271E-1,-1.3621837E-1,2.5828993E-1,-3.7043014E-1,2.962332E-1,3.8897717E-1,-7.6746315E-2,6.343572E-1,4.6451372E-1,3.3836465E-3,-2.0001253E-2,1.4915066E-2,-2.8057236E-2,-2.2151554E-2,1.3804406E-2,1.0930113E-2,4.0833086E-2,1.9888848E-2,-3.186198E-2,3.1950347E-2,-3.5870444E-2,2.5410814E-2,1.3627206E-2],"categories":[],"categories_nodes":[],"categories_segments":[],"categories_sizes":[],"default_left":[0,0,0,0,0,0,0,0,0,0,0,0,0,0,0,0,0,0,0,0,0,0,0,0,0,0,0,0,0],"id":38,"left_children":[1,3,5,7,9,11,13,15,17,19,21,23,-1,25,27,-1,-1,-1,-1,-1,-1,-1,-1,-1,-1,-1,-1,-1,-1],"loss_changes":[1.7947008E3,8.982229E2,4.093091E1,4.510502E2,6.2354834E2,2.4089783E1,2.6236328E1,2.805547E2,2.1402518E2,5.7139026E2,6.3900116E1,1.9948181E1,0E0,1.3039917E1,1.4151062E1,0E0,0E0,0E0,0E0,0E0,0E0,0E0,0E0,0E0,0E0,0E0,0E0,0E0,0E0],"parents":[2147483647,0,0,1,1,2,2,3,3,4,4,5,5,6,6,7,7,8,8,9,9,10,10,11,11,13,13,14,14],"right_children":[2,4,6,8,10,12,14,16,18,20,22,24,-1,26,28,-1,-1,-1,-1,-1,-1,-1,-1,-1,-1,-1,-1,-1,-1],"split_conditions":[1E0,1E0,1E0,1E0,1E0,1E0,1E0,1E0,1E0,1E0,3.255E1,1.79E0,-7.6746315E-2,1E0,1E0,3.3836465E-3,-2.0001253E-2,1.4915066E-2,-2.8057236E-2,-2.2151554E-2,1.3804406E-2,1.0930113E-2,4.0833086E-2,1.9888848E-2,-3.186198E-2,3.1950347E-2,-3.5870444E-2,2.5410814E-2,1.3627206E-2],"split_indices":[3,99,77,77,93,83,18,18,84,92,2,0,0,84,6,0,0,0,0,0,0,0,0,0,0,0,0,0,0],"split_type":[0,0,0,0,0,0,0,0,0,0,0,0,0,0,0,0,0,0,0,0,0,0,0,0,0,0,0,0,0],"sum_hessian":[3.13794E4,2.5490928E4,5.8884727E3,1.1736142E4,1.3754785E4,2.1854795E3,3.702993E3,5.2144424E3,6.5216997E3,1.2169733E4,1.5850515E3,2.1799119E3,5.5676985E0,2.0007379E3,1.7022551E3,2.9416438E3,2.2727986E3,6.2186895E3,3.0301028E2,1.0941383E4,1.2283507E3,1.38054E3,2.0451149E2,2.1619854E3,1.7926575E1,1.994405E3,6.3329077E0,1.3852505E3,3.170046E2],"tree_param":{"num_deleted":"0","num_feature":"110","num_nodes":"29","size_leaf_vector":"1"}},{"base_weights":[-5.0599976E-3,-1.1479371E-1,4.7502705E-1,-2.0016168E-1,2.8024638E-1,4.3656337E-1,6.574736E-1,-2.5632176E-1,4.8742473E-1,3.0486587E-1,-6.8741095E-1,3.676732E-1,5.5918354E-1,6.915414E-1,2.746766E-1,-2.2498107E-2,-4.7462416E-4,2.6925495E-2,-8.7491805E-3,7.649682E-3,2.3169568E-2,-5.2843787E-2,3.0637352E-2,1.8699175E-2,-7.828184E-2,2.8729958E-2,-1.7866263E-2,3.516405E-2,4.7044544E-3,2.057126E-2,-3.265194E-2],"categories":[],"categories_nodes":[],"categories_segments":[],"categories_sizes":[],"default_left":[0,0,0,0,0,0,0,0,0,0,0,0,0,0,0,0,0,0,0,0,0,0,0,0,0,0,0,0,0,0,0],"id":39,"left_children":[1,3,5,7,9,11,13,15,17,19,21,23,25,27,29,-1,-1,-1,-1,-1,-1,-1,-1,-1,-1,-1,-1,-1,-1,-1,-1],"loss_changes":[1.6425236E3,8.5588513E2,4.0418945E1,8.059649E2,1.0765219E2,4.0287415E1,1.2955292E1,9.2214966E2,5.34292E1,1.0583258E2,5.454676E1,3.8065186E1,2.4540833E1,6.421356E0,1.0929755E1,0E0,0E0,0E0,0E0,0E0,0E0,0E0,0E0,0E0,0E0,0E0,0E0,0E0,0E0,0E0,0E0],"parents":[2147483647,0,0,1,1,2,2,3,3,4,4,5,5,6,6,7,7,8,8,9,9,10,10,11,11,12,12,13,13,14,14],"right_children":[2,4,6,8,10,12,14,16,18,20,22,24,26,28,30,-1,-1,-1,-1,-1,-1,-1,-1,-1,-1,-1,-1,-1,-1,-1,-1],"split_conditions":[1E0,1E0,1E0,1E0,1E0,1E0,4.072E1,1E0,1E0,1E0,1E0,1E0,4.699E1,1E0,1E0,-2.2498107E-2,-4.7462416E-4,2.6925495E-2,-8.7491805E-3,7.649682E-3,2.3169568E-2,-5.2843787E-2,3.0637352E-2,1.8699175E-2,-7.828184E-2,2.8729958E-2,-1.7866263E-2,3.516405E-2,4.7044544E-3,2.057126E-2,-3.265194E-2],"split_indices":[3,78,80,80,83,78,2,79,87,77,14,83,2,25,100,0,0,0,0,0,0,0,0,0,0,0,0,0,0,0,0],"split_type":[0,0,0,0,0,0,0,0,0,0,0,0,0,0,0,0,0,0,0,0,0,0,0,0,0,0,0,0,0,0,0],"sum_hessian":[3.1176201E4,2.5376617E4,5.799584E3,2.0867627E4,4.5089907E3,4.792594E3,1.0069895E3,1.9292498E4,1.5751282E3,4.3977856E3,1.1120517E2,3.0711602E3,1.7214341E3,9.2395386E2,8.303566E1,1.0810621E4,8.481877E3,1.4625248E3,1.12603355E2,2.2470288E3,2.150757E3,8.674269E1,2.4462477E1,3.0619727E3,9.187709E0,1.6933256E3,2.8108566E1,9.059748E2,1.7979034E1,7.285334E1,1.0182325E1],"tree_param":{"num_deleted":"0","num_feature":"110","num_nodes":"31","size_leaf_vector":"1"}},{"base_weights":[-4.8642177E-3,-1.096455E-1,4.581737E-1,-2.8709993E-1,7.7167295E-2,3.927817E-1,5.671738E-1,-3.4345073E-1,4.6012992E-1,-7.519454E-2,2.4681202E-1,2.771731E-1,4.614587E-1,6.035592E-1,3.5977855E-1,-1.9665858E-2,2.185701E-2,1.4976487E-2,3.635925E-2,5.348782E-3,-1.908302E-2,1.3398714E-2,-5.0018907E-2,9.998408E-3,2.2111168E-2,2.3489108E-2,-3.776579E-2,2.1019582E-2,3.2098334E-2,-1.9176647E-2,1.9417264E-2],"categories":[],"categories_nodes":[],"categories_segments":[],"categories_sizes":[],"default_left":[0,0,0,0,0,0,0,0,0,0,0,0,0,0,0,0,0,0,0,0,0,0,0,0,0,0,0,0,0,0,0],"id":40,"left_children":[1,3,5,7,9,11,13,15,17,19,21,23,25,27,29,-1,-1,-1,-1,-1,-1,-1,-1,-1,-1,-1,-1,-1,-1,-1,-1],"loss_changes":[1.5027823E3,8.373491E2,4.051709E1,5.456012E2,3.1808124E2,2.8262146E1,1.5938965E1,4.6906335E2,3.8759964E1,3.6201913E2,1.5394894E2,1.6923798E1,2.3058014E1,1.2533386E1,6.986828E0,0E0,0E0,0E0,0E0,0E0,0E0,0E0,0E0,0E0,0E0,0E0,0E0,0E0,0E0,0E0,0E0],"parents":[2147483647,0,0,1,1,2,2,3,3,4,4,5,5,6,6,7,7,8,8,9,9,10,10,11,11,12,12,13,13,14,14],"right_children":[2,4,6,8,10,12,14,16,18,20,22,24,26,28,30,-1,-1,-1,-1,-1,-1,-1,-1,-1,-1,-1,-1,-1,-1,-1,-1],"split_conditions":[1E0,1E0,1E0,1E0,1E0,1E0,3.766E1,1E0,1E0,1E0,1E0,1E0,1E0,1E0,3.788E1,-1.9665858E-2,2.185701E-2,1.4976487E-2,3.635925E-2,5.348782E-3,-1.908302E-2,1.3398714E-2,-5.0018907E-2,9.998408E-3,2.2111168E-2,2.3489108E-2,-3.776579E-2,2.1019582E-2,3.2098334E-2,-1.9176647E-2,1.9417264E-2],"split_indices":[3,21,95,7,77,77,2,91,98,18,82,78,85,17,2,0,0,0,0,0,0,0,0,0,0,0,0,0,0,0,0],"split_type":[0,0,0,0,0,0,0,0,0,0,0,0,0,0,0,0,0,0,0,0,0,0,0,0,0,0,0,0,0,0,0],"sum_hessian":[3.0971857E4,2.5257154E4,5.7147017E3,1.2952741E4,1.2304413E4,3.5747307E3,2.139971E3,1.20449375E4,9.0780383E2,6.482704E3,5.821709E3,1.3340575E3,2.2406733E3,1.818945E3,3.2102606E2,1.1322143E4,7.2279535E2,5.6821515E2,3.3958865E2,4.0662717E3,2.4164321E3,5.7253467E3,9.6362274E1,9.1041E2,4.2364746E2,2.2260596E3,1.4613646E1,3.1736386E2,1.5015812E3,1.142109E1,3.0960498E2],"tree_param":{"num_deleted":"0","num_feature":"110","num_nodes":"31","size_leaf_vector":"1"}},{"base_weights":[-4.6729716E-3,-1.0467575E-1,4.4183832E-1,-1.5947475E-1,4.8689115E-1,4.028567E-1,6.2923926E-1,3.5584636E-2,-3.2248253E-1,5.0234616E-1,-7.099426E-1,4.8249424E-1,2.9866266E-1,4.339909E-1,6.6563886E-1,-8.538156E-3,9.9792695E-3,-1.966845E-2,1.27565535E-2,2.9590968E-2,1.659524E-2,-5.7960905E-2,2.706699E-2,1.8627107E-2,2.6818288E-2,1.5637668E-2,-2.125838E-2,2.4683457E-2,-9.147345E-3,2.19773E-2,3.5117444E-2],"categories":[],"categories_nodes":[],"categories_segments":[],"categories_sizes":[],"default_left":[0,0,0,0,0,0,0,0,0,0,0,0,0,0,0,0,0,0,0,0,0,0,0,0,0,0,0,0,0,0,0],"id":41,"left_children":[1,3,5,7,9,11,13,15,17,19,21,23,25,27,29,-1,-1,-1,-1,-1,-1,-1,-1,-1,-1,-1,-1,-1,-1,-1,-1],"loss_changes":[1.3746516E3,8.154481E2,4.0898438E1,7.319816E2,3.980487E1,3.8573364E1,6.592285E0,3.547208E2,5.135819E2,3.1920898E1,1.6145119E1,1.5455627E1,2.0776184E1,5.7976074E0,6.449127E0,0E0,0E0,0E0,0E0,0E0,0E0,0E0,0E0,0E0,0E0,0E0,0E0,0E0,0E0,0E0,0E0],"parents":[2147483647,0,0,1,1,2,2,3,3,4,4,5,5,6,6,7,7,8,8,9,9,10,10,11,11,12,12,13,13,14,14],"right_children":[2,4,6,8,10,12,14,16,18,20,22,24,26,28,30,-1,-1,-1,-1,-1,-1,-1,-1,-1,-1,-1,-1,-1,-1,-1,-1],"split_conditions":[1E0,1E0,1E0,1E0,1E0,1E0,6.577E1,1E0,1E0,1E0,1E0,1E0,1E0,2.618E1,1E0,-8.538156E-3,9.9792695E-3,-1.966845E-2,1.27565535E-2,2.9590968E-2,1.659524E-2,-5.7960905E-2,2.706699E-2,1.8627107E-2,2.6818288E-2,1.5637668E-2,-2.125838E-2,2.4683457E-2,-9.147345E-3,2.19773E-2,3.5117444E-2],"split_indices":[3,4,4,99,42,99,1,77,93,18,89,77,65,2,17,0,0,0,0,0,0,0,0,0,0,0,0,0,0,0,0],"split_type":[0,0,0,0,0,0,0,0,0,0,0,0,0,0,0,0,0,0,0,0,0,0,0,0,0,0,0,0,0,0,0],"sum_hessian":[3.0783602E4,2.5151352E4,5.63225E3,2.3019684E4,2.1316667E3,4.6650205E3,9.672295E2,1.047992E4,1.2539765E4,2.1050637E3,2.6602985E1,2.642033E3,2.0229873E3,1.5401456E2,8.132149E2,4.640785E3,5.8391343E3,1.1169348E4,1.3704175E3,1.3787938E3,7.262699E2,1.96288E1,6.974186E0,8.71405E2,1.7706279E3,1.9849152E3,3.8072124E1,1.4061249E2,1.3402059E1,1.1540732E2,6.978076E2],"tree_param":{"num_deleted":"0","num_feature":"110","num_nodes":"31","size_leaf_vector":"1"}},{"base_weights":[-4.4797217E-3,-9.9962935E-2,4.2594844E-1,-2.5263923E-1,9.771646E-2,3.8729662E-1,6.113E-1,-3.1904227E-1,3.5195997E-1,1.7679252E-1,-1.6572496E-1,3.1947738E-1,5.092497E-1,6.461476E-1,2.2718276E-1,-1.9249696E-2,2.1424217E-2,-1.9636531E-3,3.126158E-2,1.4861861E-2,1.3774803E-3,-1.0486811E-2,2.1500738E-2,8.09968E-3,1.9759187E-2,2.7971799E-2,1.1217876E-2,3.2911148E-2,2.246819E-3,1.8202195E-2,-3.3408295E-2],"categories":[],"categories_nodes":[],"categories_segments":[],"categories_sizes":[],"default_left":[0,0,0,0,0,0,0,0,0,0,0,0,0,0,0,0,0,0,0,0,0,0,0,0,0,0,0,0,0,0,0],"id":42,"left_children":[1,3,5,7,9,11,13,15,17,19,21,23,25,27,29,-1,-1,-1,-1,-1,-1,-1,-1,-1,-1,-1,-1,-1,-1,-1,-1],"loss_changes":[1.2572059E3,7.556374E2,3.9552002E1,5.67242E2,2.2732251E2,3.7868286E1,1.2657654E1,6.277041E2,1.4953401E2,1.508487E2,6.614875E1,3.519867E1,2.3345581E1,6.333557E0,1.01819515E1,0E0,0E0,0E0,0E0,0E0,0E0,0E0,0E0,0E0,0E0,0E0,0E0,0E0,0E0,0E0,0E0],"parents":[2147483647,0,0,1,1,2,2,3,3,4,4,5,5,6,6,7,7,8,8,9,9,10,10,11,11,12,12,13,13,14,14],"right_children":[2,4,6,8,10,12,14,16,18,20,22,24,26,28,30,-1,-1,-1,-1,-1,-1,-1,-1,-1,-1,-1,-1,-1,-1,-1,-1],"split_conditions":[1E0,1E0,1E0,1E0,1E0,1E0,4.072E1,1E0,1E0,1E0,1E0,1E0,3.665E1,1E0,1E0,-1.9249696E-2,2.1424217E-2,-1.9636531E-3,3.126158E-2,1.4861861E-2,1.3774803E-3,-1.0486811E-2,2.1500738E-2,8.09968E-3,1.9759187E-2,2.7971799E-2,1.1217876E-2,3.2911148E-2,2.246819E-3,1.8202195E-2,-3.3408295E-2],"split_indices":[3,10,80,91,81,78,2,92,77,99,4,77,2,25,100,0,0,0,0,0,0,0,0,0,0,0,0,0,0,0,0],"split_type":[0,0,0,0,0,0,0,0,0,0,0,0,0,0,0,0,0,0,0,0,0,0,0,0,0,0,0,0,0,0,0],"sum_hessian":[3.058791E4,2.503507E4,5.55284E3,1.4125252E4,1.0909818E4,4.597252E3,9.555875E2,1.2727829E4,1.397423E3,8.391352E3,2.5184668E3,2.956651E3,1.6406012E3,8.7548065E2,8.010688E1,1.1696384E4,1.0314458E3,5.750299E2,8.2239307E2,4.6431567E3,3.7481953E3,2.3458137E3,1.72653E2,9.609111E2,1.9957399E3,1.3940613E3,2.4653993E2,8.5814984E2,1.7330828E1,7.0000206E1,1.0106679E1],"tree_param":{"num_deleted":"0","num_feature":"110","num_nodes":"31","size_leaf_vector":"1"}},{"base_weights":[-4.3006334E-3,-9.541905E-2,4.104473E-1,-1.8415786E-1,2.3507386E-1,3.7190515E-1,5.978681E-1,-2.504531E-1,3.2226363E-1,1.8479748E-1,6.063408E-1,4.5067742E-1,2.698247E-1,4.012808E-1,6.3490134E-1,-2.260446E-2,-4.637068E-3,1.430697E-2,5.779302E-2,7.754343E-4,1.6104141E-2,3.686269E-2,8.43206E-3,1.9587254E-2,2.7599752E-2,1.3785647E-2,-7.097656E-2,2.3032015E-2,-9.869818E-3,2.0515746E-2,3.359354E-2],"categories":[],"categories_nodes":[],"categories_segments":[],"categories_sizes":[],"default_left":[0,0,0,0,0,0,0,0,0,0,0,0,0,0,0,0,0,0,0,0,0,0,0,0,0,0,0,0,0,0,0],"id":43,"left_children":[1,3,5,7,9,11,13,15,17,19,21,23,25,27,29,-1,-1,-1,-1,-1,-1,-1,-1,-1,-1,-1,-1,-1,-1,-1,-1],"loss_changes":[1.1493083E3,7.312999E2,3.9348083E1,6.600272E2,9.841147E1,3.6434998E1,6.5356445E0,5.527134E2,6.820151E1,1.0806879E2,3.5922546E1,1.5096558E1,2.0113342E1,5.4417953E0,6.2266846E0,0E0,0E0,0E0,0E0,0E0,0E0,0E0,0E0,0E0,0E0,0E0,0E0,0E0,0E0,0E0,0E0],"parents":[2147483647,0,0,1,1,2,2,3,3,4,4,5,5,6,6,7,7,8,8,9,9,10,10,11,11,12,12,13,13,14,14],"right_children":[2,4,6,8,10,12,14,16,18,20,22,24,26,28,30,-1,-1,-1,-1,-1,-1,-1,-1,-1,-1,-1,-1,-1,-1,-1,-1],"split_conditions":[1E0,1E0,1E0,1E0,1E0,1E0,6.577E1,1E0,1E0,1E0,1.0206E2,1E0,1E0,2.618E1,1E0,-2.260446E-2,-4.637068E-3,1.430697E-2,5.779302E-2,7.754343E-4,1.6104141E-2,3.686269E-2,8.43206E-3,1.9587254E-2,2.7599752E-2,1.3785647E-2,-7.097656E-2,2.3032015E-2,-9.869818E-3,2.0515746E-2,3.359354E-2],"split_indices":[3,95,4,11,12,99,1,17,43,77,1,95,82,2,17,0,0,0,0,0,0,0,0,0,0,0,0,0,0,0,0],"split_type":[0,0,0,0,0,0,0,0,0,0,0,0,0,0,0,0,0,0,0,0,0,0,0,0,0,0,0,0,0,0,0],"sum_hessian":[3.0410049E4,2.4933115E4,5.476933E3,1.965587E4,5.2772456E3,4.545216E3,9.3171686E2,1.7381037E4,2.2748323E3,4.6491616E3,6.280842E2,2.5635728E3,1.9816433E3,1.4957083E2,7.8214606E2,7.627427E3,9.75361E3,2.1816335E3,9.319862E1,2.0824148E3,2.5667468E3,4.8295218E2,1.4513208E2,1.6238889E3,9.396838E2,1.9755942E3,6.0491047E0,1.3628825E2,1.328257E1,1.1226203E2,6.69884E2],"tree_param":{"num_deleted":"0","num_feature":"110","num_nodes":"31","size_leaf_vector":"1"}},{"base_weights":[-4.1337134E-3,-9.114107E-2,3.953667E-1,-1.7067553E-1,2.6868218E-1,3.304942E-1,5.050993E-1,-2.230805E-1,4.526388E-1,3.487269E-1,-9.131543E-3,3.350765E-1,-6.6946045E-2,5.422059E-1,2.9739216E-1,-2.0405272E-2,3.4114328E-4,2.4997687E-2,-8.315727E-3,1.35821095E-2,3.390177E-2,2.9805368E-2,-6.1879717E-3,1.1298316E-2,2.0047462E-2,2.480475E-2,3.5189662E-2,1.5963485E-2,-3.533865E-2],"categories":[],"categories_nodes":[],"categories_segments":[],"categories_sizes":[],"default_left":[0,0,0,0,0,0,0,0,0,0,0,0,0,0,0,0,0,0,0,0,0,0,0,0,0,0,0,0,0],"id":44,"left_children":[1,3,5,7,9,11,13,15,17,19,21,23,-1,25,27,-1,-1,-1,-1,-1,-1,-1,-1,-1,-1,-1,-1,-1,-1],"loss_changes":[1.0504888E3,7.102604E2,3.8308228E1,6.6401013E2,9.9912476E1,2.645523E1,1.5301331E1,7.975583E2,4.6255524E1,8.8355225E1,6.986151E1,2.4282776E1,0E0,1.2324341E1,6.9546394E0,0E0,0E0,0E0,0E0,0E0,0E0,0E0,0E0,0E0,0E0,0E0,0E0,0E0,0E0],"parents":[2147483647,0,0,1,1,2,2,3,3,4,4,5,5,6,6,7,7,8,8,9,9,10,10,11,11,13,13,14,14],"right_children":[2,4,6,8,10,12,14,16,18,20,22,24,-1,26,28,-1,-1,-1,-1,-1,-1,-1,-1,-1,-1,-1,-1,-1,-1],"split_conditions":[1E0,1E0,1E0,1E0,3.562E1,1E0,3.766E1,1E0,1E0,1E0,1.56E0,1E0,-6.6946045E-2,1E0,1E0,-2.0405272E-2,3.4114328E-4,2.4997687E-2,-8.315727E-3,1.35821095E-2,3.390177E-2,2.9805368E-2,-6.1879717E-3,1.1298316E-2,2.0047462E-2,2.480475E-2,3.5189662E-2,1.5963485E-2,-3.533865E-2],"split_indices":[3,78,95,80,2,82,2,79,87,11,0,77,0,80,85,0,0,0,0,0,0,0,0,0,0,0,0,0,0],"split_type":[0,0,0,0,0,0,0,0,0,0,0,0,0,0,0,0,0,0,0,0,0,0,0,0,0,0,0,0,0],"sum_hessian":[3.0219615E4,2.4815754E4,5.403861E3,2.0323928E4,4.491826E3,3.3986394E3,2.0052213E3,1.874831E4,1.5756167E3,3.4869097E3,1.0049165E3,3.3901333E3,8.5062E0,1.6999218E3,3.0529962E2,1.038763E4,8.360682E3,1.4639032E3,1.11713585E2,2.8269907E3,6.5991876E2,1.593489E2,8.455676E2,1.2778906E3,2.1122427E3,1.3256898E3,3.7423187E2,2.9945746E2,5.842155E0],"tree_param":{"num_deleted":"0","num_feature":"110","num_nodes":"29","size_leaf_vector":"1"}},{"base_weights":[-3.971084E-3,-8.699948E-2,3.8068828E-1,-1.380422E-1,4.5559734E-1,3.4255597E-1,5.6814635E-1,-3.028453E-1,3.8377646E-2,4.7042987E-1,-6.930357E-1,4.2055807E-1,2.4234287E-1,6.2563735E-1,4.3240145E-1,-4.0134587E-3,-2.3662113E-2,7.017974E-3,-1.0434678E-2,2.7703961E-2,1.5558909E-2,-5.629122E-2,2.5545118E-2,1.2962143E-2,2.2885548E-2,1.2820872E-2,-2.3092767E-2,3.2128703E-2,-3.1510532E-2,2.2874372E-2,-2.1401642E-2],"categories":[],"categories_nodes":[],"categories_segments":[],"categories_sizes":[],"default_left":[0,0,0,0,0,0,0,0,0,0,0,0,0,0,0,0,0,0,0,0,0,0,0,0,0,0,0,0,0,0,0],"id":45,"left_children":[1,3,5,7,9,11,13,15,17,19,21,23,25,27,29,-1,-1,-1,-1,-1,-1,-1,-1,-1,-1,-1,-1,-1,-1,-1,-1],"loss_changes":[9.5971606E2,6.8455817E2,3.7939026E1,6.568241E2,3.653476E1,3.4569458E1,6.7549133E0,4.429403E2,2.7496808E2,2.7786194E1,1.4903404E1,1.4821381E1,1.9383003E1,1.3808273E1,6.0468254E0,0E0,0E0,0E0,0E0,0E0,0E0,0E0,0E0,0E0,0E0,0E0,0E0,0E0,0E0,0E0,0E0],"parents":[2147483647,0,0,1,1,2,2,3,3,4,4,5,5,6,6,7,7,8,8,9,9,10,10,11,11,12,12,13,13,14,14],"right_children":[2,4,6,8,10,12,14,16,18,20,22,24,26,28,30,-1,-1,-1,-1,-1,-1,-1,-1,-1,-1,-1,-1,-1,-1,-1,-1],"split_conditions":[1E0,1E0,1E0,1E0,1E0,1E0,1E0,1E0,1E0,1E0,1E0,1E0,1E0,1E0,1E0,-4.0134587E-3,-2.3662113E-2,7.017974E-3,-1.0434678E-2,2.7703961E-2,1.5558909E-2,-5.629122E-2,2.5545118E-2,1.2962143E-2,2.2885548E-2,1.2820872E-2,-2.3092767E-2,3.2128703E-2,-3.1510532E-2,2.2874372E-2,-2.1401642E-2],"split_indices":[3,4,4,21,42,99,18,99,107,18,89,17,65,39,44,0,0,0,0,0,0,0,0,0,0,0,0,0,0,0,0],"split_type":[0,0,0,0,0,0,0,0,0,0,0,0,0,0,0,0,0,0,0,0,0,0,0,0,0,0,0,0,0,0,0],"sum_hessian":[3.0047639E4,2.471393E4,5.3337075E3,2.2589643E4,2.1242883E3,4.4344824E3,8.99225E2,1.1678977E4,1.0910666E4,2.0977898E3,2.6498703E1,2.491779E3,1.9427034E3,6.291549E2,2.7007007E2,5.0647554E3,6.6142207E3,7.7232334E3,3.1874326E3,1.3737352E3,7.240545E2,1.9539557E1,6.9591475E0,4.6795E2,2.023829E3,1.9052595E3,3.744385E1,6.212647E2,7.890173E0,2.6287427E2,7.195799E0],"tree_param":{"num_deleted":"0","num_feature":"110","num_nodes":"31","size_leaf_vector":"1"}},{"base_weights":[-3.8133154E-3,-8.305327E-2,3.6640579E-1,-1.4316748E-1,3.611E-1,2.5836787E-1,4.3205443E-1,-2.100712E-1,3.7885112E-1,2.2788432E-1,5.1448524E-1,2.64136E-1,-7.62712E-2,5.1636654E-1,3.3448526E-1,-1.5032786E-2,1.2744709E-2,6.7748725E-3,3.1406082E-2,1.0074967E-2,7.8555495E-2,2.6295787E-2,-4.573508E-2,1.3670646E-2,-3.8696203E-2,2.3646167E-2,3.4436624E-2,1.911239E-2,6.3386834E-3],"categories":[],"categories_nodes":[],"categories_segments":[],"categories_sizes":[],"default_left":[0,0,0,0,0,0,0,0,0,0,0,0,0,0,0,0,0,0,0,0,0,0,0,0,0,0,0,0,0],"id":46,"left_children":[1,3,5,7,9,11,13,15,17,19,21,23,-1,25,27,-1,-1,-1,-1,-1,-1,-1,-1,-1,-1,-1,-1,-1,-1],"loss_changes":[8.765298E2,6.571671E2,3.724951E1,7.57181E2,5.9838196E1,2.0914505E1,2.676947E1,8.0942395E2,1.4932562E2,5.5401726E1,2.2748444E1,1.935553E1,0E0,1.281665E1,1.5041626E1,0E0,0E0,0E0,0E0,0E0,0E0,0E0,0E0,0E0,0E0,0E0,0E0,0E0,0E0],"parents":[2147483647,0,0,1,1,2,2,3,3,4,4,5,5,6,6,7,7,8,8,9,9,10,10,11,11,13,13,14,14],"right_children":[2,4,6,8,10,12,14,16,18,20,22,24,-1,26,28,-1,-1,-1,-1,-1,-1,-1,-1,-1,-1,-1,-1,-1,-1],